const DATA = {"layer_count_arr": [784, 16, 16, 10], "_weight_array": [[[-0.08027433078157686, -0.44525947524204695, -0.06494325937673899, -0.17164170243659066, -0.11336265512167423, 0.4151099607002677, -0.396538170615059, -0.07086314024575766, 0.27275215006879555, 0.29674745081739673, 0.09439279587897487, 0.026005577197683354, -0.07491096108519198, 0.15720212767711753, -0.3401244957815695, -0.1556778725966283], [0.5149624468480835, -0.1370441971133124, -0.42758401000734336, -0.209788672604938, 0.18402243210432614, -0.08595615477211478, 0.01384300918181063, 0.1040963509485362, -0.15517322318957735, 0.23670696892831217, -0.057671922231297565, -0.0687108679470901, 0.37230124974442474, 0.19030649227896512, 0.36368413748225975, 0.07890756902512809], [-0.15777885089819765, 0.11889026500897368, 0.25365798054521876, -0.41960155690515927, -0.1353126732625172, 0.362823367564681, 0.029480113638033312, -0.30499787126337424, -0.10234803084484623, 0.14271738918225627, -0.17821054448780502, -0.2758324491695797, 0.1245722411237953, -0.03719912313951598, -0.06540971789557223, 0.013615770187242427], [0.09704357598785569, -0.3395144625873146, -0.22831871066151685, -0.20043661131135013, 0.23445206158144447, 0.1959304519224915, 0.24406229617445063, -0.12087705438040187, -0.18262979310857624, -0.23351209403408774, 0.10931145971317384, 0.07033958581643107, 0.3186568546155153, 0.25603406636778153, 0.0637271249230856, 0.3709014642574986], [0.01781960207266613, -0.28592525020621634, 0.45855481926336483, 0.553446857637322, 0.020030367982350753, 0.17790051019644715, -0.09251475146369545, 0.09476078331421682, -0.015778587668831896, 0.15149796004419938, -0.07766643647101276, 0.10170775822431881, -0.0012578823219467072, -0.16467188072066496, -0.2529895577025365, -0.017934431048135243], [-0.20621428437019365, 0.11546315095037102, 0.10127642579953425, 0.04809484479371866, -0.3823722668137303, -0.10610286736574592, 0.1866694193432086, -0.1161132716231143, 0.037757764213804376, -0.19506592521305433, 0.03700801701248099, 0.06405438146935782, 0.15052637411432038, -0.20861356655926644, -0.0322808144802262, 0.06054192634588185], [-0.46078468123909266, -0.03044287735386941, -0.23995235757803848, 0.1668226036699766, 0.5203066139780098, -0.2824782655093356, 0.0814857602397038, 0.1021957021913739, -0.2367077780407052, -0.4529427719694421, -0.041430692542975614, 0.257284657048516, 0.04015952366496571, 0.3639211658421362, -0.0289785213278125, 0.1714548633891295], [-0.3316709452585268, 0.11216382266437563, -0.33356665610451414, 0.26061719716493204, -0.15583574504905234, -0.09257187418556626, -0.3295559155111881, -0.033663734173067325, -0.2293626287339622, -0.05671609597721059, -0.640248053099349, -0.5005753125143357, 0.27190698570845917, 0.506801644822281, 0.054616814081098766, 0.24551190853858249], [-0.16204784742128814, -0.14511574887776996, 0.0824234257009472, 0.03752936297266557, -0.07821642826967365, -0.04808276250874866, -0.5233063084668954, -0.12272272668619014, -0.0516427689673231, -0.4398921053458431, -0.2886185640055248, -0.3156155941802173, 0.3912247413241253, 0.026735764228038375, 0.08185215115022086, 0.08564332568935058], [0.0074389880098580516, -0.0339829854836484, 0.18646932931629348, 0.3540238196200679, -0.012285551704877131, -0.023436303924746334, 0.07181920102672047, -0.11663287123487197, 0.12021221885638216, 0.04593189250504963, -0.33224056243596495, -0.18007763910511684, 0.1760373695278563, 0.007320478727409289, 0.22808652253038098, -0.3371219254211786], [-0.4659832379486647, 0.2900745792790717, 0.026000489710035404, 0.009006320914660181, 0.1069490086600745, -0.23767345091624842, -0.18161380428789506, 0.25750734316877993, -0.37808901894139607, -0.40439525829663237, -0.4465473035869888, 0.15177215321389104, 0.4931253067879665, 0.039908535787584104, 0.04760441026081115, -0.019134037971056398], [0.5766584250637968, -0.5946598812474547, 0.003610162605449484, 0.05066700169558811, -0.07948082190112711, 0.4590427859547674, -0.42432421715005314, -0.24321522218541847, 0.03543370105157689, -0.5182128933176943, -0.25859891079666386, -0.4642074067330623, 0.2648817601957694, 0.34881117040429627, 0.1576429531060704, 0.3075846712894811], [-0.14270701180928455, -0.16195123706750103, -0.4183981363174395, -0.04724225273835632, -0.3294649909250548, 0.6331210003576446, -0.16365020607794542, -0.20966944997604137, -0.33725287515594216, -0.3610646461449094, 0.48561470070136764, -0.2923193411309691, -0.27584177365344015, -0.11526893073611959, 0.41973707722617304, -0.6746383803180769], [0.22047293180257174, -0.4532878991785667, -0.004110199155722043, 0.028263176527088887, 0.3450136712194689, -0.0792981324556853, 0.019145854730639417, 0.5591972056687607, 0.5365532002381415, -0.5448022569375416, 0.2221402068616831, -0.4300597733856786, -0.08020959137150957, 0.24349408319341395, 0.18175298347474378, 0.24353802951389422], [0.04870201096089294, -0.4854393523339692, -0.12213497887594123, 0.15480644432644963, 0.4341530128108898, 0.2434734259078026, 0.19020832390967574, 0.3473666289080292, 0.9901764955189859, -0.21674348709169372, -0.12298424648846956, 0.24163183194186044, 0.09246692807775082, 0.171544554705779, 0.40065478942979676, -0.21979037502918913], [-0.18413031669494345, -0.062307235993369875, -0.0385425694115151, 0.22856702074624366, -0.13672663124921725, 0.2748651065380224, -0.02703744888158337, 0.15730661487408362, 0.1339232285836632, 0.06666344892719935, 0.006893193040970967, -0.06933444755422209, 0.41374184000850917, 0.11659828984074459, 0.48411965179371125, -0.2909535108170182], [0.5460336223100781, -0.1023524496370364, -0.10022386941101169, -0.29933300786464007, -0.3035306461307661, -0.395668875230445, -0.1978324861369993, 0.23435658119201147, 0.47150642936928533, -0.17526017194433652, 0.5142362427459455, -0.15545954752197397, -0.21305920734792008, 0.3175799438024599, -0.06248630461533969, 0.26344650086978455], [-0.020188534375505895, -0.24083942340463577, 0.18798763285456324, -0.03852789327533167, -0.0533698282711323, 0.33128116479631514, -0.09862341752287125, -0.0848311008786302, -0.2923686925199589, 0.026581328996867864, 0.44052866655427236, -0.195951150356309, 0.048194465053593476, -0.011692244069299368, 0.14889315132945471, -0.11595793061985821], [0.26803601760777107, -0.5649136802796378, -0.20502688569945055, -0.24752167859959026, 0.07136343733216963, 0.31699449919811784, 0.298743277112049, -0.2914398562959447, -0.13555415896475423, 0.7348061792928052, 0.029618628746268885, -0.18762612137076817, 0.26768389980780083, 0.05241786968008705, 0.008488073454669424, -0.19381473545008998], [-0.06804464542937827, 0.1568844812479198, 0.1864751277353139, -0.01985689394825978, -0.17183675160474754, 0.02773804586040697, -0.054426527129640294, -0.4792894623756878, -0.09754836236770183, -0.13344548775029552, 0.13333041462319112, -0.007810617202701748, -0.35841957735889374, 0.13832413302535154, 0.6512524352740555, -0.19445450391473706], [0.08070170455682797, -0.5128911595342798, -0.08797556067998544, -0.12844336217447158, 0.09071610537533399, -0.20446291041280676, -0.07795616841843714, -0.39338058763796613, 0.08849524425517033, 0.37761733692828603, -0.047462317341697445, 0.6643036856980634, -0.28582491187445097, -0.33433305391858203, -0.33107991574125495, -0.354042813539011], [0.1453927544124134, -0.0968188459748684, 0.4216684853261314, 0.06283128561404407, -0.09106973981102662, -0.34215745458129093, 0.21808621653624236, -0.23890120524955216, -0.14752553778417252, 0.0964819521300628, -0.08393855736170809, -0.5242562165455441, 0.2010476350296776, 0.04415820961414104, 0.5293989971562509, -0.13166718327438234], [0.15424873536754044, 0.09887653949159611, 0.33626053948964196, -0.34379840134741835, 0.31829582489423003, -0.3311334447091803, -0.15318600062413648, 0.11839644829135429, 0.1056817976940378, 0.013917372216757365, 0.02922388303875875, 0.09006553570782452, -0.15298700575212273, 0.03375057226147715, 0.04813835705883172, 0.3054713627599572], [0.14710467853843887, -0.4449964928830173, 0.11396802271804654, -0.3526470728859355, -0.06548029798979085, -0.1843361431571769, 0.04303740218544476, 0.2951149876116122, -0.09940757179898686, 0.25407520105720394, 0.019857697612207577, -0.17952089191351378, -0.23080073248996202, -0.22217301897828864, 0.49758513260066567, -0.006528765660372992], [0.4004739376078175, 0.09060799865625678, 0.17153365788448244, -0.005895698651115281, 0.022685627861953647, 0.06581414816743936, 0.208436417237094, 0.1595601391196943, 0.0754622000591507, -0.10440944105005134, -0.33003171567271183, 0.0704201990108509, -0.0186939937169733, 0.15014084817096693, -0.14146201610910122, -0.07675153834816276], [-0.058273264476745426, -0.34837188143223363, -0.6349788016669875, -0.08958872918330311, -0.33082429790043777, 0.11886059561271185, 0.23230322123557035, -0.11717924283374835, 0.3550568076327346, 0.088345967827192, -0.14985345751275236, -0.14068635766965945, 0.1075555981538596, 0.22388927879829343, 0.40890318258912056, -0.48776647072481694], [-0.14170929769857266, -0.056774648405770345, -0.42693206221552854, -0.2129254921238085, 0.20227245113883124, 0.26075821309420494, -0.3671981938713673, -0.3207068434143385, 0.03583456997003819, 0.33982785331258036, 0.20097381677541717, 0.016287667566734436, -0.0191604306801471, -0.006022401228814791, 0.21203055520316147, -0.039998539542115095], [-0.20890609041149544, -0.026008792176037993, -0.04467255482918089, -0.033018617303498296, -0.11942844792570624, 0.07478874954371623, 0.15965860126654258, 0.06357783898724105, 0.16673768253249607, -0.2746954569662657, 0.17834973412308264, 0.37295332343571436, 0.2776162539368113, 0.07199990600759752, 0.24641402416348118, 0.021121967669296356], [0.05156987687345197, -0.4451705057831612, 0.3229654299230304, -0.26091749063575326, -0.2676630848859203, -0.09377764171212867, 0.26551773753774266, -0.02397231515712957, 0.33435870090738584, -0.011774941060845508, 0.07716209610177924, -0.1345342280326025, 0.1027094648423623, -0.12356426157059351, 0.27483248702874147, -0.2028025079059354], [0.2559622408702898, 0.02759126619515466, 0.03334375920567276, 0.14561901146898892, 0.24915238679370133, 0.08249215311382957, 0.04024088035974827, 0.3088124498587801, 0.05494086040796685, 0.28328451649230135, -0.3228467469055238, -0.0337547804907764, 0.01180415445667881, -0.16900561594636584, -0.3006275372582761, 0.14633326573171326], [0.045880551323634756, -0.36334512145868636, 0.2903045402764544, 0.3305380246884022, 0.16974446734946536, -0.2493152652224168, -0.4870473353680973, -0.5594462840683748, 0.19148860387354436, 0.015571893951844796, 0.17594508844902995, 0.06513685894414883, 0.13614524943575737, -0.1797488010677345, -0.04074614602764551, 0.2723959314353354], [0.09025011878247698, -0.2738934541262651, -0.32115382477486626, 0.28437972205973633, 0.09453131575418307, -0.14056188893747792, 0.17832946816270265, 0.1602902881765991, 0.008670922836111306, 0.020352590127583062, -0.10451284982768899, 0.08897366557418615, 0.252631397589265, 0.31708512130984456, -0.30659795402660206, -0.052684882894542664], [0.00838395353639551, -0.06354691068703215, -0.0019684298293547167, 0.3220209573033325, 0.21806020928139475, -0.15845625596969434, -0.15118821148019634, 0.2846750294167299, -0.09567594539999834, -0.19530828004183742, -0.42282586218555956, -0.2214159654778851, 0.521210677424203, 0.4509801311184541, 0.06374252922279572, 0.03491419866554036], [0.15027686721653308, -0.11422189003882, -0.1327831810143616, 0.1915788500828477, -0.21986857026271595, -0.5815155677935046, -0.0706382596211773, 0.23433933338203433, -0.22024184046357467, -0.30679792098932895, -0.16667044200506664, -0.04226104061721006, 0.2519056173494608, 0.12741384781092174, 0.33397723000079327, -0.0203999136707256], [-0.3834904739601385, 0.05938929964983269, 0.09097104991275848, 0.28941008763765386, -0.35617565997090705, -0.8935307831770218, 0.1155301648280681, -0.12231280149784321, -0.18418374763313788, -0.39231024126212183, -0.4668092360462811, -0.8374822008530267, 0.3333871016268276, 0.4670673012779879, 0.06283419850418702, 0.051881539010345375], [-0.32226296835939316, 0.09239477175317093, 0.25263514316235375, 0.952554022797018, 0.0867099658003047, -0.5499272993347524, -0.11676030957704922, 0.704590657210975, -0.2618441025973028, -0.6480357073931178, -0.4918025205409532, -0.2675316629982508, 0.4585060852347123, -0.16864829668692907, 0.3523585265813538, -0.09429346117804939], [-0.44332475221690715, 0.17849971983557086, 0.16751351634727693, 0.6533662025919246, 0.21645677932263238, -0.3284993004255785, -0.18473197256123863, 0.5857898995415306, -0.2792296391807855, -0.21434488427348278, -0.1880221464413441, -0.16314215007053592, -0.24816982117974318, 0.12666214820968488, -0.3606384990950855, -0.08185796854880317], [-0.49381921325452166, 0.15879631464465688, 0.005217704327194305, 0.7531368673836648, 0.3676675841618799, -0.2876139450398926, 0.25974371617097014, 0.34293212065948014, -0.05585329531468578, -0.21614125190932948, -0.3728464947249744, 0.3368044941014145, 0.30561660628218845, 0.33073196849878256, 0.3481001808980467, 0.35894591908057266], [0.19666505842787885, 0.04510393387000456, 0.06871064716993121, 0.5079600477005304, -0.1382591233335956, -0.3549848487031766, -0.4090370316260915, 0.6779134841329341, 0.33136093795844046, 0.07246450549765884, 0.15427213761735975, 0.21453128934348537, 0.4925338355638419, 0.008290685445406945, 0.2426125146601508, 0.06174885028405032], [0.02327866937219957, 0.2805361326581384, -0.15297764387463456, 0.03683886334816805, 0.25684296021606196, -0.46446062119473347, 0.12312361339730235, 0.6376596449910202, -0.2805079822808436, -0.28887376557116595, -0.1345023265181868, -0.031988643830471925, 0.370025649654417, -0.17656676682912484, -0.23155644677414147, -0.4248430721564112], [-0.20693648742177811, 0.1958548572607751, -0.333264455953667, -0.10793559361342837, 0.1108375590555642, -0.049390749180555, -0.0389598799634658, 0.5142433047865639, 0.28156340643395034, -0.6861140154007499, 0.23755190495006592, -0.3062904235129595, -0.012500946087251368, 0.056790552204660144, -0.37153370308143513, -0.03588147915702833], [-0.15405725993430672, -0.32269748484339766, -0.245522957961115, 0.03997498544464236, -0.14243275133920452, 0.19166682275671043, -0.10565568823162186, 1.0377563873008084, 0.15767935769508468, -0.21782161910736253, 0.2678494679201021, -0.18882836739631462, -0.035976235369013475, 0.27843695748522146, 0.053456026908333676, 0.06797226543273382], [-0.3049900424557287, -0.7677497806311168, 0.14020655307033938, 0.021780289086328734, -0.1348882514948555, 0.16841382851024184, 0.047384097423775424, 0.46621839988118097, 0.4682938476744357, -0.6917312921924578, 0.03154786309650006, -0.3351463374251945, -0.005218620652112099, 0.09623704294506719, 0.3884365781293517, -0.27497704079206114], [0.3810246975227787, -0.74460215996084, -0.20904187901143914, -0.32448714369797793, 0.4508801775198662, -0.1363266305851739, -0.5675485775859355, 0.33435183048095596, 0.2358691321484533, 0.12986068433286468, -0.1686841778141604, 0.10082504375054034, 0.024810464422343463, 0.6500992854678224, 0.16190027983838368, -0.10511865002274086], [0.2276060066590405, -0.13442034479934187, -0.0638819581023487, 0.15645863759227466, -0.15892755557725882, 0.37685529813700025, 0.12455900754161495, 0.7691745519869383, 0.4954547680290188, 0.5770283187036301, 0.19117478089054088, 0.4364591190716751, 0.10548264814681445, -0.1360977893032221, -0.10784542261789529, -0.13001769140220437], [-0.17285297159677157, -0.4108587103795999, -0.03732406847866985, -0.14043932158516628, 0.06900001551655179, -0.11691066560110429, 0.05887635770943601, -0.4707770979485993, -0.15578581800549762, 0.47358868911462404, -0.1116918015952494, -0.03005276634841365, 0.3285662618263726, 0.19024597237420388, -0.14819367869632086, 0.2021845581820619], [0.15281127386861862, 0.16050950436541633, 0.12915513819551377, -0.36073218348279723, -0.006692549767838038, 0.24839360520337886, -0.05560449359687276, -0.5900939910751031, -0.04026608545773029, 0.3936527667477512, -0.25056426262276454, 0.3223880075144361, -0.1633853867319758, 0.05378402774055899, 0.16439829346043067, -0.44465334377523513], [-0.1595877913639568, -0.0429116787580881, -0.260269643396109, -0.008977768472731025, 0.07547212615532047, 0.27197385407254265, -0.22033348199046954, -0.7325797347241133, -0.06915397495947476, 0.5888523479767116, 0.21065180346725396, -0.08449703499498779, -0.16748003049296498, 0.35163026768827654, 0.09061610281693525, 0.2657609908261125], [0.38293184049132906, -0.17304838135656359, -0.04048523317967338, 0.06175475277875963, 0.0004709208027128446, 0.22667187856937746, 0.31540716634689137, -0.5515851060231585, 0.4778314236503966, 1.1735382501227312, 0.023107995432040476, 0.017665150838484155, -0.28782921579955834, 0.4961128785319341, 0.512804225338383, -0.07288071972475767], [-0.28291643324302423, 0.15629397515109483, -0.11500606431911808, 0.16882497010447772, -0.1821345669357453, 0.11142969586719549, -0.06220753093606884, -0.3298434250307286, 0.556788985408987, 0.4101561284465125, 0.12933538653889956, -0.14232924433533914, -0.4969161316798045, -0.4660393461820658, 0.30869973565926534, 0.3451388213146808], [-0.3366769859687028, -0.2736985347975034, 0.09989659087795279, -0.1115474822847626, -0.19270828265688944, 0.42450386611695523, -0.4044883593409843, -0.27679602787121477, 0.07588741371267274, -0.01582735850710431, 0.04071148024307912, -0.15872946530981977, 0.06505019010215171, 0.007704715557950257, -0.718591896638369, -0.4753521954064147], [-0.5237965872787227, -0.024413937036046617, -0.037830972376632736, 0.34515098952157774, -0.13643795028164074, 0.2571594763710688, -0.5399261311715303, -0.05718380833102766, 0.17916242727027973, -0.09881639203856832, 0.24138303491598934, 0.17900649536355134, -0.5063698719642249, 0.06114368238971089, 0.0008942138767253907, -0.072388545892565], [-0.1647547497202363, 0.0029387737841001216, 0.15764007957303267, -0.14050979239754682, 0.058904615002639035, 0.19604807209573433, -0.21487274649717372, 0.2746660464611602, -0.5207787656626462, -0.29207719202269594, -0.4538123326892215, 0.1418903464951418, -0.24878810744550586, 0.08527538872917344, -0.03378266078066684, 0.19558374900170922], [0.21616715106450857, 0.2504845675241298, -0.2436044572810822, 0.21215452220881126, -0.25029624148014495, -0.36156744034444216, 0.4464882495330637, -0.6635593477284285, 0.08637409100607289, 0.19986440412229997, -0.3759742426697642, -0.2034646088342227, 0.1968945115025279, -0.28143757487348, 0.3085636115651508, 0.11744755344973297], [0.2298416045464179, 0.047942259953003115, 0.014104517514936174, -0.19152383039575185, -0.08280657505916353, -0.2549390242474569, -0.34029975774119653, 0.018177112758689908, -0.24544945216848166, 0.27465958961114695, 0.3818424257952172, 0.043026211860956905, 0.5244309202968547, 0.3467862507873699, -0.22729902384388076, 0.09013934251152603], [0.12877139065670454, 0.2765611938279512, -0.00011610403483739481, -0.2918105673888493, 0.05133598306403639, 0.2197743387962809, -0.4832799071732416, 0.11251478097392893, -0.09180338135966122, 0.06681640719816093, -0.08705058601711695, 0.03759771015871826, -0.42471361634799926, -0.1458768880393337, 0.26967954948315576, 0.20513289802975568], [-0.322502601555625, -0.19244925978297342, -0.08472936925094854, 0.0670776478776943, 0.2241687724579509, 0.048188458972064585, -0.2577373520811733, -0.5015068366612853, 0.17878434461915538, 0.1845902166093957, -0.08844956035508761, 0.019419368646744147, 0.21150380162419793, -0.5697019409525185, -0.0011407424939916895, -0.028299131804180346], [0.1684316724536206, 0.07324114468565124, -0.33508949514049935, 0.5030557299486863, 0.8957166428627648, 0.20478383028825903, -0.10414512107501481, 0.1119138530311316, -0.14861218494831285, 0.2787024153018952, 0.26947330933650115, -0.06541252815605192, 0.11602637524514621, 0.20808899476598772, -0.21874133586696198, 0.5860133759945063], [-0.10380643887029697, 0.3899773687073837, 0.07278257487813916, 0.13836583843398584, -0.24338727874314403, 0.2590251805416514, -0.2289300947568313, -0.5028029437040777, -0.35103967258936203, -0.13081255817625873, -0.13190405619914242, 0.07182884762859337, 0.22793214388499003, 0.11855909371452553, -0.05143520749758534, -0.10023740324800774], [0.0858110996352181, -0.05535211066395076, 0.4859528714449965, -0.15456402648089168, -0.4670498121731335, 0.22061584315425695, 0.361627404878876, 0.12703542960710826, 0.05006427861565671, -0.19307426025790936, -0.3343811675976839, -0.021271648705007664, 0.48579152459169156, 0.4827635053404606, -0.14053732923391052, 0.06590471100724617], [0.0092489548560624, -0.011487646844863916, 0.34391419845983395, 0.44964405511528366, -0.49796195835091467, -0.21442537142616377, 0.11642651716459791, 0.3776293176517358, 0.21043279262978729, -0.894196242946357, -0.3186774754985127, -0.1532513841532232, 0.7088575775904533, 0.03869966641067199, 0.11600337414410664, -0.004252679263095325], [-0.4768064719330959, -0.127909911671791, 0.23403298886627552, 0.9228181285229429, -0.37513512890100215, -1.0711631293841504, -0.0908492212697355, 1.0519119105171078, -0.11988479942942078, -0.8264447361821511, -0.24540185692763897, 0.20956573930999606, 0.6298395490800244, -0.13102728489394652, 0.1083893536540975, -0.27559116594500926], [-0.4755707103102747, 0.15024268990555012, -0.11960812217262513, 0.7176539247351167, 0.5491321425393889, -0.6729998029921176, -0.18374930764780553, 0.41532413109375477, -0.6955285612259298, -0.8078776134746497, -0.5712066490911242, -0.33331921713063495, 1.0454615762462616, -0.380996973905002, 0.13581485702680093, -0.43104023926808815], [-0.3853924221313986, 0.2855085531992335, -0.5477143212862171, 0.8060508781516379, 0.33126027754692744, -0.9598356242002793, 0.11396097191964806, 0.33552406764035286, 0.24679660549294669, -0.641831935893789, -0.4851315932619147, -0.1218741912599221, 0.7798512370489442, -0.2244593166300374, -0.22914050582353193, 0.32185322959180035], [-0.3061255758476055, 0.29453612374021204, 0.17891493232894862, 1.0346149192744092, 0.1184862787240664, -1.0667839978111189, 0.20885393383831227, 0.7001082626989037, 0.08547903776462928, -0.1850148717647956, -0.37865262089718826, -0.02609846529740373, 0.7670330509152589, -0.08143312127763529, 0.31665240765023306, -0.1612560080545368], [-0.8203725297773201, 0.4161255424353863, -0.16066180606539057, 0.4402326963486299, -0.2735248225881842, -0.500458402635054, 0.023447535979879683, 0.21204715391921092, 0.5269083345578399, -0.7928207637852821, 0.083380391572013, 0.10064174971614036, 0.7646757474638837, -0.20702507775644746, -0.08851622128021097, -0.004676788264479082], [-0.26318555477079353, 0.07168965434866617, 0.08783890580364032, 0.5091360548592931, -0.10643796450671296, -0.6346214423200673, 0.1628065192601096, 0.2588436431728687, 0.08257779812445674, -0.17208579052327183, -0.03099106283843006, 0.033590950136023576, 0.4948709559581948, -0.48829088308193697, 0.42547762924707533, 0.20082404347141747], [-0.2681758228628447, 0.08581916872614956, 0.41278345835177466, 0.07760049305360973, 0.18534000203631373, -0.3253123174811093, 0.10105391253556746, 0.48501319774211404, 0.30119449428211764, -0.3151385911264936, 0.10873340887331089, 0.16255634668726943, 0.6232081511758967, 0.3735576795818422, 0.033029975967346616, 0.031046918314475865], [-0.2060664566433073, -0.4294276953683548, 0.1811100633971909, 0.017334869229703502, 0.39092547643936226, 0.03136169304592295, -0.15883086125808527, 0.6679855310642234, 0.5188681955165163, -0.5889549613681268, -0.17872968918686266, -0.07170792147719592, 0.48999836450472656, -0.546892145798009, 0.466706734426182, -0.05182729702512745], [-0.04284842282478122, -0.8777631003508114, 0.09584272086456107, 0.6880429124783715, -0.4341252864401397, -0.3645849114167323, 0.07601489674188741, 0.5789175760037892, 0.6864821314980103, -0.5039380318990968, 0.23490060464885454, -0.6737180518273299, -0.3312592026368944, -0.05819365839571147, 0.7588863591491553, 0.1913224079769733], [0.12399324375749697, -0.29520578362720773, 0.08565646068664344, -0.12400691453879988, -0.18814541644816568, 0.17041653061353162, -0.0013564496948738692, 0.521980429161592, 1.0180859092257133, -0.3964127921421644, -0.008296073644233407, -0.3662350883346971, -0.09070502644269599, -0.1019117091059754, 0.10815521540534923, 0.21184254671542516], [-0.2120870055053077, -0.9666995328017693, -0.02547268519112062, -0.04401008848924577, -0.22344705513186583, -0.08932657100965652, -0.007187623143615483, 0.21569685899493998, 0.47557386977430954, 0.08303111005425694, 0.12256981071019929, 0.24354414251898499, 0.05879316984794123, 0.573304572337615, 0.8431608419609494, -0.2381333265217428], [-0.017557677790108688, -0.4224523130614983, -0.10237327079054967, -0.04906233485144417, 0.033929769368302526, -0.11651874971091292, -0.12940700817046014, 0.27281072483651014, 0.4816152372565899, 0.07367731504460219, -0.1505510891354056, -0.20423476791515888, -0.37585574398562627, 0.17906740832866794, 0.40500204225468894, 0.23456899400011208], [-0.13855656721482842, -0.9967230607531691, -0.2833637475091328, 0.07739475372147642, 0.21982117460201137, 0.34082792700998676, 0.005848629561879089, -0.3908323943624682, 0.6074638326540007, -0.03802296420991234, 0.010040478977366303, 0.2826548127352276, 0.07226740336393682, -0.14918294045661937, 0.33232450136402586, -0.28950469301273557], [-0.14278458216090378, -0.09631739185427414, 0.8000147083326891, -0.4694538675272607, -0.6373171427043249, -0.008552008882037061, -0.2556974767288193, -0.33281881310866096, 0.16651468650763446, 0.7438498752698163, 0.1709948691504335, 0.5432625979272692, 0.39367595816866957, 0.3614069096902558, -0.07195987355544471, 0.39184845650911604], [-0.04055525743805295, -0.1736940126113784, -0.493303860133802, 0.33795893496645135, 0.10037431461660519, 0.03642084104306945, 0.14298821674015386, -0.4916960829807292, -0.1693363624991707, 0.3186657161886891, -0.15283312151726658, 0.33615615937883936, 0.3132217961776684, 0.14434696433253466, -0.26291725137581473, 0.12489343078154008], [0.1232562628218643, -0.11424837962974571, 0.37181083110705127, -0.12746714299057244, 0.13623364659914106, -0.056827781149277945, 0.14942341136421602, -0.36886651369479073, -0.005299305196722731, 0.3812381458817478, 0.5214297190092558, 0.7227086692348278, -0.25276775042559624, 0.1253813874924367, 0.5055117419732198, -0.03214389479030157], [-0.14654200500536044, -0.4639209697685649, -0.16779414000678952, 0.26562959906180733, 0.17880300475086472, 0.4100544336401587, 0.24354454603891837, -0.21112470226788402, 0.40971110953614476, 1.1697284329103717, 0.45945763092908815, 0.046905640155391316, -0.15318010490826217, -0.20291062022649287, 0.016368583450497905, -0.22247324556474382], [-0.46707835424810634, -0.2494277202471607, 0.12432282558306465, 0.054239497129998177, -0.04792694418938397, -0.5728640615927041, -0.47207618371071264, 0.13920288361439742, 0.3389812109748745, 0.6609595691573631, -0.15989750789834983, 0.18891749245059597, 0.12468947267620231, -0.37881870770299225, 0.2410331890775103, -0.09735246736176544], [-0.305384953522738, 0.013533488342467103, 0.15142489276793117, -0.2923348061345746, -0.07578422198888124, -0.31143830819371676, -0.09389852538463363, -0.04526442738150538, -0.10266344610094595, -0.2343606853858384, 0.3212108568508472, 0.3382773937247769, -0.3218917468489634, 0.2800013200517815, 0.16222831203985402, 0.19468767821073635], [-0.5252118388841792, 0.37809617527105815, 0.15062402565989422, 0.13755003883453537, -0.19915778770210404, -0.07718366991903411, -0.1530418062777041, -0.3479941052083606, -0.16140663496958105, -0.48636822784833583, 0.07604556301340751, 0.025014416724515355, -0.3684741143994986, 0.03967148598857784, 0.033317599004386675, 0.07366039655940061], [0.45640447037443754, -0.29915735062296456, -0.1070660246107869, 0.21482495213532316, 0.038051981471161685, 0.3769931274609124, -0.26973085596309226, -0.17418803063500637, -0.03043604096932162, 0.09615989208338986, -0.14682233828587804, -0.3975988106092274, -0.23987525160837497, -0.35984374170640787, 0.03221258724288734, -0.7553087211228423], [0.28550711274135687, 0.2256796135686045, 0.4280355935052464, 0.16591804234445048, 0.350381592672606, -0.18908470947065278, 0.018890172360926015, 0.16459434210484758, -0.0732905701846152, -0.16486071961423052, 0.08421334034235485, 0.1640464450093936, -0.07733053144802557, 0.07591636879965476, -0.44618062049243784, -0.22072543900574346], [-0.38648700507978806, 0.11312360988981882, 0.05656759947745866, -0.012829795285450706, -0.37375736517933406, -0.2366494514653906, -0.4555587144563197, -0.14615946395648266, 0.5472027408812349, 0.06165089028965305, 0.13261036380753136, 0.17917864232286837, -0.24217609329066092, 0.11069322770321541, 0.12686454792861643, -0.10984612042685234], [-0.0552564634690949, -0.3239020292585577, 0.2878185947082683, -0.2783511346948051, 0.1174175835605896, -0.1363408399853031, -0.11562906781982368, -0.10945627497071324, 0.2983962022615826, -0.26816413501283304, -0.015830569470214058, 0.07578223953213825, -0.08834677510385944, 0.012567162233127076, 0.45254738917127013, 0.1175106519779667], [-0.05455304135461089, 0.3261263433356948, -0.14940417939322048, -0.14343613772693833, 0.045278052616762925, -0.24742328892186605, -0.43213770973880306, -0.1532638729009925, 0.3759202599142075, 0.035780895092508994, -0.09578907351234736, 0.40815617350668165, 0.02890394947601366, 0.04752156092595243, -0.0028372793512731224, 0.039463142747584355], [-0.6017506054848385, -0.1592693777002675, 0.010352817352461102, -0.1671186713580662, 0.3263194229558598, -0.3488839907868827, 0.2929671086194394, -0.16442116055106323, 0.14608688613990545, 0.08881145856012601, 0.3385198457824835, -0.303866023221119, -0.45247745180418714, 0.3102529953294097, -0.2231497396689475, -0.6552730844991222], [-0.2807805310555939, -0.36466769229704327, -0.32156573992418624, -0.029311399314706013, -0.13633976324717864, -0.03726423073260077, 0.4465240093739986, -0.006945313217555096, 0.03490351739296728, 0.14185579600454115, -0.0014207398543584784, 0.14879877769759484, 0.06598642327979058, -0.21721421380612035, -0.01637078111770572, 0.20622294822751686], [-0.5353088817894968, -0.2473503626546259, -0.18944990971229803, 0.7301693893521435, 0.32652127752931703, -0.8378664194195704, 0.04881452858881193, 0.47235920158606093, -0.03708119181717761, -0.40842690114978386, -0.27562771131809655, -0.43802232036232863, 0.3999855085658548, 0.13903554787570738, 0.005214870886678885, -0.22112571283191734], [-0.6059452971098438, 0.13596154559616916, -0.3677250596833986, 0.6283302872652706, -0.2889347499916226, -0.34980781852766335, 0.24225440022487074, 0.41245943636104854, 0.03950529752189505, -0.7549409845522721, -0.5627556452822482, -0.3283045899233186, 0.8309737668863382, 0.1591751119079522, 0.31999950249095155, 0.131944488969475], [-0.44512287600952327, -0.2790704305833766, 0.23549036318936953, 1.5173667750235251, -0.10544015131984774, -0.9930808926029596, 0.2539634485010928, 0.31242060547065664, 0.12341539162395233, -0.6170296481831073, -0.4640898281452456, -0.07329832786251955, 0.6180146863621323, 0.08943958400347163, -0.011240156017674743, -0.21224675284011432], [-0.6286135599951985, -0.08034235148077233, 0.017917430904742467, 0.509689578240511, 0.1406700305669269, -1.1680797022746041, 0.07893871801621381, 0.7669813419508484, 0.19774094894183616, -0.5963339287521515, -0.49389907510739156, -0.35769087443702735, 0.6930161892446849, -0.19621388939773793, 0.11728573911321566, -0.10098529723254558], [-0.724654079339239, 0.5880836183962764, 0.0965922727408957, 0.530043929672131, -0.1753266303545509, -0.8487409190668393, 0.23990549792730623, 0.49934914383002305, 0.11156056011421514, -0.8783346291188036, -0.697900869933974, 0.3272666644146394, 0.427472984904624, 0.21416337433121796, -0.3235137021006115, 0.3687019697240155], [-0.9416273134731094, 0.2214935068787524, 0.35714801692960874, 0.5775148341461229, -0.06606210216535494, -0.7414635842694848, -0.38315347448708775, 0.7329648758504017, 0.06802406295900573, -0.3363373392050688, -0.4198169814746705, 0.4645146738139687, 0.3100647679989093, -0.4996525361750344, 0.3295989738847992, -0.02074570099000496], [-0.3872052795803445, 0.42146063467332157, -0.20057203322166522, -0.10345899377071077, -0.18203520135750487, -0.2899188573513627, -0.35071880832635927, 0.5675565320199158, -0.00631652447221428, -0.31760046757464994, 0.13111138742635015, 0.5295411441766145, 0.5959137258311574, -0.031929688550343754, 0.08742462045466876, 0.2910203081325489], [-0.4188188709626131, -0.2431110154424178, 0.2217317866579611, 0.24551133798671526, -0.488608157599022, -0.4618084567010911, -0.03700014539618122, 0.1307380316895304, 0.3360951172231239, -0.3642037436489145, -0.19073574687538913, 0.1041449541454638, 0.7560845330155018, 0.12908342787937088, -0.08699949314864065, -0.37540546707533945], [-0.15748629266542072, -0.0018511531989854777, 0.18560810299226482, 0.07558294783314704, 0.08433914695730743, 0.042004894561760514, 0.2116263393340489, 0.4597395114621343, -0.05056257480664689, -0.42042148367858984, 0.2883054267837813, -0.6068535026955106, 1.0391955896094365, 0.02699460564608847, 0.338379100579143, 0.3534201566597145], [-0.17412895053722527, -0.580603802322611, -0.12586180357086044, 0.11059529262785123, 0.2633509765079439, 0.060239631717328296, -0.11986772408600618, 0.48559710369079534, 0.9211880422040556, -0.4798975799689372, 0.1780933030418594, -0.8926929387053111, 0.2838053485220654, 0.10776069798269698, 0.2592313692771058, 0.01482145476388039], [0.11430439256332009, -0.491428682002974, 0.21892704228590942, 0.392952123415995, -0.10160734028934006, -0.44225850777057857, 0.08280026323083305, 0.8275024523673195, 0.373865845449644, 0.1808283522256512, 0.38136819335014094, -0.6602796077781855, -0.05015777969947808, -0.021319301294055976, 0.9663330366479126, 0.37681959466749887], [-0.013508862629506232, -0.6245219622553179, 0.19374888166348783, 0.29974583665659604, 0.27246244800451763, -0.1703680068246396, 0.25440042234740146, -0.15887979972989355, 0.5813236897006195, 0.12400946708920241, -0.5032567050403106, -0.07052876245122446, -0.17245897051284567, 0.033829476807096574, 0.22813254043600237, -0.260181239475036], [0.08812898992582537, -0.7777004658834241, -0.24407261397024183, -0.05294056187102109, 0.005223740299338823, -0.03741305738600815, 0.020235074536465007, 0.21680620071790563, 0.36233957843315157, 0.28203256617931555, 0.068514822699283, -0.24074730114483667, -0.1664606866549553, -0.021148452738751138, 0.003815568135631114, 0.012974549828512935], [0.1840217141196749, -0.6417230213157725, -0.14858198750092352, -0.3840310631065773, 0.0843502166719938, -0.006712160979552596, 0.17046224973354954, -0.3166521977833911, 0.6261335132221998, 0.2607420627599113, 0.05740216548647028, -0.12083343022433848, 0.008783617240907638, -0.021116681206811337, 0.13220490508140156, 0.08936163729506506], [-0.036165051602153775, -0.3006336443613733, -0.020155839274124888, -0.41597238491137567, 0.505094610329329, -0.3302978327711677, -0.36495580901048885, -0.3647291467594204, 0.46639287700123483, 0.10604434490741796, -0.3041582836872567, 0.5873671252369106, 0.19138745168041257, -0.43727127559910733, -0.06366312033676978, -0.5522230367226447], [0.04026992375953084, -0.2045919985015751, -0.1242775210183109, -0.29259004567141833, -0.16147165765154461, -0.15106516524245453, 0.3481317014013843, -0.38152913711524217, 0.6974946136699487, 0.7182952378738859, 0.23420117602491775, 0.47472674587938674, 0.009133050726523761, 0.04051863354116601, 0.04769519008243169, -0.063205738672974], [-0.30167562933268177, -0.04607760316716758, 0.2671275117658412, -0.26675366516359245, 0.05059084912023468, -0.1172828633972515, -0.011305817663446557, -0.4122061554751154, 0.2994212629453999, 0.8110553551005529, -0.18262397360544547, 0.3005282434203952, -0.4077203130668898, -0.06031654190401305, 0.3197422986772113, 0.27309509368073975], [-0.03306442405374583, -0.16210924045032735, -0.06631571718711543, -0.31054261301917646, 0.04539201617920576, -0.045236787110236834, 0.1478740470657835, 0.005871545965759081, 0.2130872944437267, 0.5841309786444843, 0.1820387312761744, 0.35151348028213913, -0.798962256376556, 0.5055730089268647, 0.36889337381611276, 0.09810741466119086], [-0.6630240893470136, -0.24147509741480627, -0.01227100632036239, -0.33828335904813517, -0.1087507954135828, -0.12842880934525985, 0.3605762993840429, -0.4937802583806415, 0.7834696625329992, 0.3980229448907674, 0.3787891543945206, 0.019471422369691842, -0.4551964151953162, -0.34570710409205674, 0.41621804508056115, -0.14122353664006904], [-0.5358249334098973, -0.3022771931234569, 0.06768603726416196, -0.03573341985231913, 0.24989546031696647, -0.19258707327335975, 0.21432875512970867, 0.14462247739651, 0.15259418002906058, 0.451622754767782, -0.06592259899502659, 0.17539368362594918, -0.5477424883718309, 0.2933139850795849, 0.4826587598902273, -0.3285584446527704], [-0.2456385616815814, -0.03020657096573593, 0.5937463753748731, 0.0252948809318006, -0.27599623432828735, 0.3971289656440649, -0.09407142092438786, -0.16025204391628817, 0.019689530450510095, 0.038692166451499754, 0.07952930708069704, 0.20284124836701314, -0.33470601293619806, -0.37839718747617834, 0.07053002713988687, -0.12984969956530582], [0.013845172076648994, -0.05881311920379537, 0.21859392900520036, 0.1738437895945328, -0.054151993585164135, -0.14734672390880163, -0.12058855902122052, 0.11829069955637986, -0.08659074778428451, -0.29930255367024844, 0.1900552280132565, 0.2743863226629952, -0.25863456366347093, 0.1664687272240091, -0.1208643381788828, -0.5458650267359365], [0.028474743671763548, -0.13927885314053637, -0.31038316583160985, -0.18280419204108242, -0.31450417103293216, -0.006790194265026687, 0.37360143112588023, -0.028254777833813787, 0.03397307754271703, 0.3551712582348915, -0.22518106235784593, 0.058684735443689885, -0.1637070598921163, -0.016242047554981938, -0.23228984478824824, -0.035909760772144236], [-0.40345529694965643, -0.023629658107151476, -0.22163014138131093, -0.32141660168849817, 0.03635952165667534, -0.0945521863328669, 0.2702385882480263, -0.4520093087834882, 0.3032620062006393, 0.4764562795916282, -0.4137470825402936, 0.12851175062034778, -0.6365282415619269, -0.24927119880110668, -0.08494725034878707, -0.14250814599342393], [-0.3066563900411598, 0.3732168461309749, -0.10997275620453008, 0.10914013539705394, 0.1606520056800465, -0.27237948401737794, 0.24397084432879138, 0.14008077071805966, 0.05575762305266854, -0.1273962914083365, -0.128314632452796, 0.38200916251993927, 0.33941107478463245, -0.4464129274267905, -0.35336423863281224, 0.28072240923021047], [-0.4319723381334633, -0.06395044351120478, 0.16211095255541683, -0.17634666292699644, -0.537572310805769, 0.16359213257985267, -0.6032569240714761, 0.053559544869453565, 0.2040415388419412, 0.15126203765687632, -0.19286582713210224, -0.21847425096183098, 0.028448912316740183, 0.34290641577331876, -0.2547282293610281, -0.001613779937360795], [0.1897635679151027, -0.3811767847431561, 0.2817679679486863, 0.10795426023195073, 0.18668672575610848, 0.0691148266615563, 0.22501251359664873, 0.2070893019378021, -0.26220435709252626, 0.22325442507380294, 0.47559637376806807, -0.3577385547449176, 0.14613300770560733, -0.19547465262903646, 0.10560037083732095, 0.05283661926194097], [-0.26641934348517693, 0.4818048250281812, 0.07253261794172462, 0.29162781355256995, 0.1379062183156749, -0.21791146069982828, -0.2052426924887313, -0.4121502919695137, 0.3425408858067567, -0.2729541415356345, 0.3214766702544881, 0.15029147277872437, 0.16099437975099795, 0.07559983231398636, 0.0861599022686951, -0.15455944760097734], [-0.1513876817185002, -0.12657945914649646, 0.49051534775234085, 0.213728824295142, -0.46678194673700807, -0.1524780348071215, -0.0714044156133216, 0.5567625739612682, -0.36419280533343773, -0.9770277535762576, 0.05420231290973267, -0.1374539601928832, 0.4001380493103833, 0.20669067536082417, -0.044878195223890166, -0.2776995522048078], [-0.4091722336810751, 0.001083076601028039, -0.6036983272142132, 0.3642497630587336, 0.18814829497124477, -0.24518357918056788, 0.17340010988385324, 0.85896926508014, 0.06010423435900556, -1.1037608972826995, -0.20823152354659114, -0.5304866410448419, 0.6735422695515436, 0.005176988669068751, -0.15323280227187308, -0.4021665136370698], [-0.8031868602262355, 0.42409822615499265, 0.1360777978883441, 0.7350791449736646, 0.1297710731029039, -0.5023997087480121, -0.06430230532977647, 0.641569570795576, -0.29458415027436397, -0.8100476872779062, -0.4827903098807526, -0.9419896005444023, 0.9871297320455932, -0.016402509442069797, 0.13347922282455205, -0.32655454367438], [-0.47386063750276153, -0.20586973272272413, -0.18522649107864755, 0.7558046287594118, 0.11424524826659795, -0.7770616970847146, -0.18421951810054107, 0.7089165351468354, 0.28298586215472554, -1.1261817632499893, -0.5212514938514878, 0.12300446731560408, 0.5699738438779579, 0.28905306127675773, -0.18563269979012537, 0.4626377138522783], [-0.8584852348311554, 0.3249795572018791, 0.08495799978041327, 1.0464599416363378, 0.02265674318640725, -0.8524786843532131, -0.45131588811969003, 0.8906546135975196, 0.2511049801045075, -0.7259021329400333, -0.5306681130007069, 0.6592161883633022, 0.6477803461451906, -0.12158283449008582, 0.21651624722860982, -0.3306342928747654], [-0.6666124799632274, -0.17441778667534116, 0.2477598554319266, 0.9820138368736354, 0.10107991912596259, -0.1936744885430726, 0.17668241022559278, 0.6775541822724204, -0.039103716901985705, -0.34830210333812917, -1.1091167031659623, 0.5743448291515326, 0.6449814452444371, -0.1382193505837248, 0.8999241374213692, -0.2777219732121725], [-0.609046181970696, 0.4756222614440937, -0.12642579677797638, 0.5694039464985781, 0.1630417591099119, -0.9041295734924748, 0.27988028834950507, 0.34045937090856776, 0.010481404061280649, -0.6657423865211266, 0.3510237804225606, 0.7203990007003107, 0.9626250024444301, 0.34058688424919087, 0.2887667798056659, 0.15829009141685801], [-0.4285701004919312, 0.5655852121986304, 0.11772956573868575, 0.3183307788136597, 0.05653978895949558, -0.4799331361588684, -0.10645867424129292, 0.1814369710121977, 0.2508195293207426, 0.10230297675244843, -0.021390082287288663, 0.16988459555651877, 0.9395293565371997, 0.03672334505182126, 0.20867137791772522, -0.036900539075915784], [0.22449126634261996, -0.13991599055803633, 0.10501967264174808, -0.2636446116279366, 0.09588250574353109, -0.6584126702224564, -0.22899677651890005, 0.351445807722009, 0.13052089125213612, -0.3321045117023155, 0.39730257139717295, -0.3817990626885558, 1.0842327180103193, 0.5292151304043186, 0.24145696409937412, 0.32142345892800633], [-0.012991144050631604, -0.9460176588612751, 0.14564768543300416, 0.40445251629383255, 0.06881580161596615, -0.5509977729845493, 0.1265717835467265, 0.4846316227117627, 0.34168961983149915, -0.027092486008317183, 0.6321358496069219, -0.15558504629074923, 0.858103144214842, 0.3728432011037736, 0.736553056632157, -0.1816785247942922], [-0.22899924492481338, -0.6567617306491095, -0.09874478578624207, 0.1976075832211947, -0.31414900689595177, -0.06315902687752095, 0.0759268446270275, 0.3646420935757992, 0.5066183838834226, -0.16500559959610284, 0.1383997437249994, -0.5483287619228672, -0.3870661164049196, 0.09427257598996575, 1.0564881834845932, 0.2924992535993521], [-0.28094622151947796, -0.5511912026375125, 0.09979017852200193, 0.4446369477931699, 0.180275989800193, -0.11561016729008414, 0.05771166028595872, 0.43662936495410887, 0.32581482190603095, 0.13776294553925275, -0.3148246519609907, 0.31725533527209504, -0.622238810322116, -0.14727037841903903, 0.5137592364963064, 0.13011758882982655], [0.10327990065007035, -0.31560811412765516, 0.2575819051233331, -0.08273722828880833, 0.4949747267285041, -0.25723914313184876, -0.017981502433509565, 0.24615491891036403, 0.7180201664842121, -0.2860716027189214, -0.26919351915508494, -0.32647010762674056, 0.14673480140485695, 0.08498951937868522, 0.38750099843204777, 0.22070041862937903], [-0.3003473768058324, -0.7055748146525739, 0.2558743232468992, -0.38505923250079666, 0.36446756333627767, 0.055551543676427034, 0.3916443128039765, -0.18859034305789854, 0.9277164462760733, -0.22877968979429153, -0.17582733413311963, 0.21828198824499923, 0.17749099336220175, -0.31072701372996664, 0.5126990185884526, 0.5136482424889116], [0.1702050492458309, -0.5273574581611297, -0.07275473849040452, -0.3643598632223467, -0.3698139994234535, -0.676746688573623, 0.4337765808415393, -0.011259924787476942, 0.7594549718335494, -0.15085800771524438, -0.4839813446648237, 0.815276089148447, 0.24818904195708122, -0.07976466710225506, 0.2077842317715527, -0.05587264348624774], [0.01089280438792043, 0.06745257730240631, 0.4011239037653432, 0.19273531145860753, 0.18880389589530003, -0.4800513084142105, -0.37042061612883154, -0.045453431765450185, 0.942190397899018, 0.845550729105983, -0.4517375797291163, 0.43318511906623514, -0.5149461368661324, 0.023811172373649273, 0.1267776579458549, -0.04647809202875717], [0.16090043496943154, -0.2676123280562706, 0.26598675567951136, 0.24426968057193696, 0.426347528100116, -0.5034779132138885, 0.13906773012847432, -0.057489890596180815, 0.5470265586415352, 0.3077708837853954, 0.19147765705228229, 0.6174550435360424, -0.39608838844234284, 0.10381777498144927, 0.5054380060240597, -0.04112512710271332], [-0.3558105134222736, -0.064234616839461, 0.010446486027468024, -0.30102610342907415, 0.18314894458414457, -0.14282811980541946, -0.3053918204800284, -0.5365740018052377, 0.15700965189674776, 0.41382329948581426, 0.14471457352334988, -0.04214160716723076, -0.01951771162223568, 0.27668047985284666, 0.1332008789819434, -0.059121248300270456], [-0.6928947470065268, -0.17565299390569014, -0.11988455537934935, -0.07611816930676822, -0.26287339863008086, 0.20854940098682664, 0.0005397107340570545, -0.5973693117512479, -0.19043573701010336, 0.16801164372132404, 0.16898844084663364, 0.29589408791474237, -0.7541154419081825, 0.17245110880881542, 0.3959858849498583, 0.1357138283967416], [-0.5306324901454551, -0.1539975249371224, -0.4577852732326329, 0.24000792332109738, 0.273851564871411, -0.07257410165328762, 0.3010347976474901, 0.17747786025624002, 0.009162369387375274, 0.17391204852063422, 0.19293188505093423, -0.22683785514147095, -0.4714742629403008, 0.03075138248979561, 0.040833391965405294, -0.06658431285025591], [-0.17432687546042105, 0.2591842337951958, -0.521432926441652, 0.08089717513670107, -0.5458354152381844, 0.05133129393029347, -0.08201623413691317, 0.06895175863279529, 0.5021817874771308, -0.16987067474227813, -0.05189126997335185, -0.1693664421928273, -0.16037830161793906, -0.06621601580914967, -0.31378471917468104, -0.17005547814867256], [-0.07644357268194014, 0.30810894554213347, -0.44010869630699084, -0.020091600635540875, 0.2756904707271835, 0.3068433827416481, 0.00577769232356663, -0.04359243029810904, -0.1526526303777916, 0.06218995968655676, -0.3540686672411814, -0.36602698943115497, -0.002547229533551699, -0.4245500459863308, -0.19797920412424277, 0.007756445399658405], [0.13599612610098008, -0.2050181431312708, 0.22256629452368867, 0.0935904232971352, -0.14126007553395226, -0.4005610129125553, -0.051545976117276876, -0.37601847264846194, -0.465093895219714, 0.5053682133009563, -0.15354257430919863, 0.20092631930355576, -0.42365753097484754, 0.24886771362930846, -0.032839187163693474, 0.12367553741967016], [0.07297636932248487, 0.13015601544720404, 0.21369621288735458, 0.19807165105118263, -0.2372834242410291, 0.21561049097855114, 0.2517986519519625, -0.019620181592329523, 0.25550614588085196, -0.16446802357627519, 0.2634171128895856, 0.012634975282658395, -0.32167790530840934, 0.004861451592635326, -0.20903412169561478, 0.30869868240745985], [-0.10516048058057108, -0.1738027460302311, -0.5010319958163232, 0.14487814604855603, 0.401411314910379, -0.1597206791936426, -0.17621288905981436, -0.030352786749040406, -0.10370745442393214, -0.11378840779900401, 0.28623838746483393, -0.1543971838680414, 0.5393601310038713, 0.18243484549920572, 0.2218860664040148, -0.19833325305757543], [-0.3745094542025796, -0.3266871021356486, -0.25801336041546646, 0.37492661665008986, -0.19958674249680153, 0.07500096197665025, -0.22534880081667819, -0.1062847238556507, 0.017736831886379176, -0.23957305777323265, 0.00462203781673994, -0.4734326465295529, 0.23833145175671266, -0.1805163874776577, 0.5486587663107219, -0.4282911792000356], [-0.2840850342838519, 0.4891052716282075, 0.22060776934856022, -0.002232104112151334, -0.28024000271684996, -0.017703893364392494, 0.35820793582887767, -0.12384891612352496, 0.11818838376225849, -0.05491367593328479, -0.2836519402149859, -0.06832668632718655, 0.005333089835531355, -0.1718062967579346, 0.06827917891730101, -0.06503717161781215], [0.08647550373664142, 0.07678092382767793, 0.019499010339977474, -0.07425948983737678, -0.09288413204269938, -0.18774972910278603, 0.2700902511430937, -0.3288786369532825, 0.02566694972487799, -0.24614614442303212, -0.31263197584096797, -0.30831000511554857, -0.1347984229095173, -0.5020037045134844, 0.4730143464912239, -0.1179745928797429], [-0.05549829774410742, 0.40274685792459736, -0.14586578757597296, -0.09764542705266355, -0.2707304566603458, 0.1314810940805796, 0.022939328958358134, 0.3843745142969122, -0.09638571263341726, -0.4241290658004071, 0.14883910816342674, -0.6110470408987903, 0.10048781387979729, -0.4024327234707648, 0.04896019037035153, 0.007166365351041114], [-0.3770483470319318, 0.10975892217596211, -0.10797442901016677, 0.2913699479957151, 0.12669992464933208, -0.3203160952675953, 0.0033950813007835833, 0.32325262421151973, -0.1364776554003976, -0.8869126207133434, -0.023322656510814298, -0.6078673863925811, 0.17771170803682176, 0.32976698586381903, -0.12077059167370306, 0.3637477155953414], [-0.6627537685145284, -0.0565846681962292, -0.16035055730725278, 0.2419728620704508, 0.2761433988340079, -0.00406056171275947, 0.27336124966823816, 0.6672812353332925, 0.2806459914120601, -0.9830903655229054, -0.42119878502987473, -0.12477290540063857, 0.08820701943356532, 0.01638443366449591, 0.08278259437405065, 0.18161855700459925], [-0.7454303476310806, -0.04369372810926089, 0.304543557460287, 0.5407673744557936, 0.05280821584668564, -0.41895012121790215, 0.21346419284863002, 0.5261354381627882, 0.039451718718117645, -0.5266023463184103, -0.47352479021982313, -0.04667639610078132, 0.8899473080253316, 0.13366784134158644, -0.26061341356122697, -0.39546398764828955], [-0.979929939204748, 0.28734486902427286, -0.0432015804875092, 0.7231161699098017, 0.17417987350019148, -0.4894562598301547, 0.13876871747136318, 1.321380754990688, 0.2054359189162795, -0.43058356050897567, -0.5680793480372749, 0.19381930759815963, 0.8540026603225109, -0.24249663131131677, 0.11078943529783503, 0.2510597989183219], [-1.413847283678455, 0.21878593286750297, 0.14343359437954978, 0.980192080476232, -0.0702228776446357, -0.6515629731846903, -0.08175680715629823, 0.6894288711070574, 0.7548004130754935, -0.6490567489066712, -0.16323323747515092, 0.13823371254989453, 0.3271023345994073, -0.039642571472429486, 0.39468595143481244, 0.459339714010716], [-0.7150852712173359, 0.2646157060684005, 0.4745120426799534, 0.48618035360468115, -0.1779448847522488, -0.15057455253363158, 0.39790445774743144, 0.9000996720380436, 0.6182123976863989, -0.8480354710014408, -0.26671942583250424, 0.1705103152182631, 0.2560434997052356, 0.09984122796601531, 0.0321186093724831, 0.0904937783794841], [-0.24823162216983136, 0.3490371141210212, 0.29126148776512883, 0.3676848808610745, 0.4288117368381116, -0.694888499253867, -0.06125118094963996, 0.8543511159377684, 0.07486488146736302, -1.2508843207974782, -0.18978526296050074, -0.2189199899526649, 0.3629200528270617, 0.5747465156370865, 0.060795829221539366, 0.14201167392984623], [-0.7151238373489047, -0.24832835746961693, 0.19785378198306872, 0.12250265552548585, -0.24506923476090284, -0.5398651624056159, -0.035671546360068834, 0.3640158382295253, 0.7228916813663396, -1.163836525966012, 0.962581863734031, -0.09412856648276295, 0.7373234313975058, 0.27061363643517816, -0.45455569773219034, 0.009038649466629481], [0.12997583247914354, -1.0315053392128186, 0.40318867799484037, 0.17706239156798895, 0.39231442872982125, -0.18587684983143365, -0.009534427229432213, 0.796198732698022, 0.19703845852190627, 0.3598974957713885, 0.05015832766232451, 0.1736565802351916, 1.2239892113933282, 0.07041970430663147, 0.6682630539637654, 0.21204984439849156], [0.16757570213558692, -0.6783594610046257, 0.10614828349996856, 0.4559683667696509, -0.12456982783217675, -0.5937344780374991, 0.020043470326643546, 0.24484675400023115, -0.07810355918870093, 0.10424266886569332, 0.4480274239629531, -0.0807016886000744, -0.10488302766968453, -0.016259326310421613, 0.6520890596472116, -0.2646769340401561], [-0.09028172297985257, -0.20493895483064822, 0.2963850099031191, 0.2598762782825864, -0.06325785924057276, -0.7634998955391791, -0.14208174631306664, 0.015077083435676746, -0.08163170952172003, -0.06325580867946039, -0.21675630249588834, 0.06305514414728408, -0.28017558873411536, 0.4338912537457665, 0.08468872322043339, 0.2126251177273359], [-0.13344539828562382, -0.5520404748589357, 0.07821996791712311, -0.19304453462614402, 0.06775926894149874, -0.522977660523581, 0.05124223202434868, -0.014960287036853181, 0.42865604053774986, 0.021712698288395314, -0.10062048203367602, -0.10474351488697116, -0.027583475943475693, 0.4913052206503341, 0.06203922911363896, -0.15232404462979515], [-0.3168018487503725, -0.20762429521340844, 0.41817779668690286, -0.3173671411419887, 0.18977910477070298, -0.5674891263371755, -0.2536658807374107, -0.15059659916703474, 1.1716050650751475, -0.05956492771015561, -0.23652041219765554, 0.4181755614520123, 0.04108730514586705, 0.30793381686613946, 0.44609062536759625, 0.19622552062699175], [-0.3091384102111774, 0.32180662868968807, 0.43574868927816385, -0.26667534782176294, 0.27112943997692796, -0.851404775150823, 0.34033227902967395, -0.3978770123053567, 0.7419817624117622, 0.6149859072434356, -0.4773328047547462, 0.5649330255931349, -0.03525850690041083, -0.03276972569037315, 0.2872715802702446, 0.28431974783738867], [-0.9388165165433464, -0.04834282092536829, -0.39755966442214796, -0.02249978508952696, 0.215425847690368, -0.08487377514752513, -0.37135931962517404, -0.36992145357316064, 1.1357941697635394, 0.3843578919116535, -0.235481446402545, 0.4832588551542016, -0.04873641107339211, -0.15173269256716546, 0.3313927665108439, 0.30026155917226505], [-0.498502552926793, -0.38094923701867134, 0.1200791014538173, -0.19461058647688675, 0.1403082374714905, -0.29402812222324637, 0.13165659015041487, -0.6256339762321572, 0.5877443021901734, 0.18335924501466846, 0.1882278015971682, 0.13278911372548416, -0.39368094935096976, 0.05512684631227847, -0.03554860344548439, 0.0921213344355025], [-0.5194687888339501, -0.396864290947811, 0.2677563697943598, -0.23081591374723467, 0.2539310155368508, 0.20400480143519437, -0.1841115460167474, 0.2879132566605878, 0.6681553012120172, -0.05270088559511777, 0.7232785939224957, -0.3297654932316297, -0.4527843163421705, 0.1756539070926266, 0.4258528710991865, -0.39225802272833515], [-0.1722616483408128, -0.046881799536253946, 0.2581800498018822, 0.1752271169646157, 0.05342677953526261, -0.16341099199880463, 0.16012554891620615, -0.43498836802080953, 0.4164245166033366, 0.32927988040302103, 0.7042495023051532, 0.1033379639184753, -0.09977532997454754, 0.37185129832550995, -0.047824505674449694, -0.37419687883342617], [-0.2568520873373485, -0.17820789772494455, 0.10283321423817247, -0.4105858921229912, 0.11924432976383716, 0.03797086371067977, -0.2892073727030504, -0.39603746181633975, -0.37965193995746316, 0.06716899010265412, 0.2673546120444529, -0.21408582401957515, -0.19198062344649428, -0.23304237272179157, -0.07735946171073024, 0.14034289625931082], [-0.024569167162161256, 0.24159956403168883, -0.06920749824766145, 0.11547075365344052, 0.0701867132221178, -0.14957867330668245, -0.06098284963341615, 0.13890588418427097, 0.4402835758971539, 0.045130255242826704, -0.14071329047253683, 0.05453814942809696, -0.11147370317973608, -0.011269202680619789, -0.18780378933317088, 0.13145526983621558], [0.012826972248966393, -0.1843560163589672, 0.1575422828601393, 0.8113046944663055, -0.4756024021442973, 0.0749295250123899, 0.038820512496607604, -0.05606904692970763, 0.05293684275912013, -0.09551134140411442, -0.15596383122952107, 0.1537188057019204, 0.01727937173468625, -0.13840182405070484, 0.02577727777073867, 0.2422166438995689], [0.23371007682536374, -0.020468491066052967, 0.15113651487064253, -0.09269240842116791, 0.12976375706600238, -0.5552348048105977, -0.24240598182487835, -0.4174731518292349, -0.14095194408399547, -0.07398305019551535, 0.07135105361299439, 0.3322312612794223, -0.5981765444178689, -0.45663966299249065, -0.31078192502146706, -0.42720969320420743], [0.11449561221267049, 0.3134971011378422, -0.27187148303705655, -0.14396331338034685, -0.15464287464795895, 0.2951064797867561, 0.16342210135573607, 0.12292069690675111, -0.17630004735310573, 0.050767829135895656, -0.0010580831185797695, -0.16428788690617813, -0.09323250260306282, 0.6036887272481456, 0.4883543187228378, 0.055333771486508004], [-0.41960418611239664, -0.3087448534628674, 0.3439768512023587, -0.03459305251062745, 0.0159345299851319, 0.1251138088337643, 0.2621856512922174, 0.0838045362979011, 0.06018397382073791, 0.18332429584859497, -0.35969921707561353, -0.05405010381503436, -0.16033770117105836, 0.07189713891876827, -0.22126622219666556, 0.2803467541315441], [-0.023504683067444104, -0.17156975233518418, -0.7619850140052798, 0.4723540704094359, -0.27507960138616144, 0.1063795009313207, -0.5441176950852603, 0.10248381653426619, -0.2560824326465361, 0.1162557628532414, -0.0002443886401825968, -0.46664115950803703, 0.5905877067675432, 0.04800351365433286, -0.4116028456556493, 0.14311220721574056], [-0.20564165410026428, 0.11753756284579706, -0.439445201043922, -0.19679162806932635, 0.1072148407925921, -0.16608275354344948, -0.27626777560115706, -0.08996680808974922, -0.29169129180585895, -0.18744756284637543, 0.12822682525064108, 0.24925595278405757, -0.34048388739005786, -0.3043827780611535, -0.30501283398464757, -0.023152952910377535], [-0.299173504257696, 0.16951730877070853, -0.3853447960256219, -0.20035279111597204, 0.27393540449194553, -0.14110647029455897, -0.1152329759411424, 0.24697420026771932, -0.06527532558869528, -0.059209793712377175, 0.33595119512944216, -0.14299547423315062, -0.11165295125222445, 0.08036848342456407, -0.26206783792317834, -0.08490365959718127], [-0.6403397001039963, 0.17871211084642558, -0.15672753299870512, -0.3303427405998979, -0.3225593494122377, -0.1745714897739677, 0.010003455243379894, 0.20872625981447418, 0.16773514392014038, -0.15741895055161453, 0.43863139738809825, -0.5545489394513337, -0.40937163124674697, 0.09088592727062736, -0.037049846599596245, -0.12704788412498694], [-0.2337599997606952, 0.5479240613184005, 0.0006346468476462323, -0.045709379460433255, -0.19535766152707723, -0.6490236846727289, -0.37903888001750335, 0.44808448227525877, -0.10181722619125588, -0.8195216721545434, 0.3197784795053559, -0.8569585964070877, -0.06998740255601113, -0.003730395016566602, 0.1674076903053795, 0.17114866818373728], [-0.23694883713274278, 0.12757279356031992, 0.2713929592327534, 0.32660144698095156, -0.05761634042021634, -0.8116039049423502, -0.35411909048312995, 0.6588996032388219, 0.05077724225743079, -0.8074001991988387, 0.6950895360721494, -0.4940991193584968, 0.04491782523575282, -0.3877040389706356, 0.11011794029803745, -0.3644527378302857], [-0.921390280822335, 0.6736492439822692, 0.40349086226945774, 0.5560534892597261, -0.17516953747464203, -0.31099263697545193, 0.559958990353956, 0.600463782380889, -0.029863928954811714, -0.7353851705250953, 0.5060356980073664, -0.2910439905965563, 0.6358935902130757, -0.2734886567215554, 0.40249342441713254, -0.09938289617809708], [-0.7435738894756616, 0.25287473193302284, -0.2680015858589838, 0.7989917028037389, 0.12154280312731607, -0.8500921016839693, 0.21597748483626064, 1.1487139262807882, 0.3205725449992512, -0.6992878138882013, -0.42128340533867675, -0.5382599922978836, 0.3441768542707639, 0.20092748474397612, 0.13673855900625712, -0.4176272122155414], [-1.1280995987503626, 0.07395939032213276, 0.13923443518578163, 0.4029855234514108, 0.026495341865752173, -1.2301458745424294, -0.09138032661508472, 0.8363237553318031, 0.5701348169918196, -0.6642858242759417, -0.3110486605565554, 0.23506533798329507, 0.6645440071532857, -0.34403827798292713, 0.28301274170334556, -0.3879564744332443], [-0.691915233173237, 0.043585868509037694, -0.055966574119037445, 0.6947884974542833, 0.27856660531772426, -0.8074291242822983, -0.03201249903531591, 0.9522630383670462, 0.7434294888930129, -0.7142646049391606, 0.1463739005657919, 0.31050419524798456, 0.4156200971706024, -0.12020509934798336, 0.01906637184476332, 0.5186070731564608], [-0.4046227328995287, 0.5435470128345902, -0.40961115893002314, 0.07609849564275206, -0.1065082275611036, -0.8784687331372287, 0.40803311395398884, 0.549842051791128, 0.35812275664427246, -0.8214381392679195, 0.028425813368179797, 0.46298601651615484, 1.2534138892227356, 0.3317590836062634, -0.0031707079984025434, 0.20860989312953532], [-0.013125830103639298, -0.1844695279030867, 0.24475765518896855, -0.030823654308087967, 0.3621895933911821, -0.9445021575306087, 0.5132130452668293, 0.30838442907419006, 0.7658296508049869, -0.477751561103438, 0.44127051450500215, -0.4068371139072711, 1.3020130115966864, 0.2800378915435523, 0.1601183578654463, 0.15295376090851928], [-0.1673029196010129, -1.4886382166020529, 0.09839634299008915, 0.5726257436161849, 0.1573073339785778, -0.5454751451555956, 0.30421357331140475, 0.4658074694826342, 0.07214746753519657, -0.1665675878509694, 0.5114496352176584, 0.4788260925817096, 0.6530041659115142, 0.17737164102845074, 1.524317758801873, 0.0934907570038827], [-0.22234555216057006, -0.8528569161590263, 0.15496654049901573, 0.2686023078924474, 0.16779948417170648, -0.7857281927993748, 0.2791970312409147, 0.32612079795028653, 0.03861871373626807, -0.141354901085454, 0.24936794083160746, -0.847995936772643, 0.1937142064318623, 0.22787770671105598, 1.2773274940191004, 0.5399957018426121], [0.24925639206358105, -0.8600764868899871, 0.266944154016907, 0.20759742574983556, 0.6142488411369318, 0.2196470717738331, 0.09484857062544158, 0.2727333477113666, 0.3339717871432114, -0.16906874226914817, -0.6469841062664209, -0.630775430075561, -0.4782503666648021, 0.07230710476376793, 0.8816877679828863, 0.2749648332103245], [-0.13297187272350547, -0.4564980760828632, 0.4182144657163168, 0.08900243810633318, -0.080177903704232, -0.9154369855530612, 0.11108997379417439, 0.193599939238597, 1.0148716259802073, 0.002154145619092501, -0.16749166871293245, -0.6047679709257799, -0.20429755688111895, 0.007955794864528763, 0.5176562434685426, 0.31505457806162623], [-0.008184192830258083, -0.4272524538149578, 0.38316522745525017, -0.7754552242018812, 0.1948326511676874, -0.3858115145262157, -0.0012694881758383897, 0.15949280137215094, 0.9100953945522351, -0.11662968055054215, -0.6953918608276549, -0.33560052301211657, 0.12398028997576732, -0.11460041934670659, 0.5737912131564312, -0.018528737175232585], [-0.3472809814064467, -0.3564448929091472, 0.06692009044448229, 0.054201932667931815, -0.34085452637514085, -0.33684627500957376, 0.25536597595401367, -0.03643933283192229, 0.8933936076038324, -0.11392056313672308, -0.23707513029301325, 0.36371527388566893, -0.15799373751887483, -0.057293666728171086, 0.33229844854699037, 0.2597732828678009], [-0.04909256184234786, -0.2528488683357226, -0.36416498072318193, -0.5555266632953386, 0.11769327422186852, -0.2439546329556269, -0.11335157753588725, -0.6577880831610822, 0.6273403219731718, 0.4384851457634434, 0.07664407598916499, -0.00047537417460737476, -0.7974810338508354, 0.10401261789401968, 0.0343944223914984, 0.25790947519794916], [-0.6739779680201983, -0.6134680418107468, 0.14745644786733028, -0.30826445459057505, 0.14018050325937606, 0.27440425886718667, 0.4791457376858266, -0.015218973448017604, 0.7892433626209406, 0.3405387395168449, 0.6195729514042547, -0.09928198499269342, -0.4299651626056077, 0.4511862324881154, 0.45564612545387173, -0.5519144156853955], [-0.15129164179175467, -0.44308834266439945, -0.09733929650557795, -0.04112320396858106, -0.13906254242070257, 0.09259674337233509, 0.3429046308617288, 0.3010983809056433, 0.3588946324565016, -0.4537210399006272, 0.5921760717964457, -0.10914609768801146, -0.3834072663742813, -0.06896404296025294, 0.823793793704912, -0.2042121535102828], [-0.4792658922078887, -0.24604726998339763, -0.22927751017756312, 0.017615380417250224, 0.11768280239310647, -0.30388919018721144, 0.23909557242836793, -0.21171979476058972, -0.05379691808919729, 0.27224071515907694, 0.15863232218441534, -0.14992209353176292, -0.16671164725469514, -0.21808618467248622, 0.2999080710100966, -0.17680538800597326], [0.09069776775560509, -0.1274124636649363, -0.3964669627391044, 0.15845556111880402, 0.24644953891048418, -0.3191052729350063, 0.12939788647555364, 0.5914848629984453, 0.4847964758293823, 0.3490447529076649, -0.03281006585887942, 0.4256019481070489, 0.1995918971718763, 0.35390735755040237, 0.2243659594158956, -0.14823204185721792], [0.40199884671593633, 0.08161929974330968, 0.5368864314179688, 0.2246999878278739, 0.4527520332107449, -0.24892490392794572, -0.4215646748861801, 0.012887898716227114, 0.39097902574931376, -0.2370358335740851, -0.09657638846030692, -0.059809110533894656, -0.18660439422567401, -0.06537590668712119, -0.008854775956641824, 0.310985107001063], [-0.20702747491597712, 0.6998334136983617, -0.02960902104716548, -0.11909212288880983, -0.003383490894311596, -0.08788707912879153, -0.246344643521549, 0.12331848091597435, -0.5243683224515099, -0.3234297672566739, 0.11086094757124343, 0.3344578377907558, -0.18590512767444786, -0.24929452127162252, -0.07117464798049442, -0.34016432076392983], [0.14166377487252974, 0.001242297536450646, -0.02066426597576117, 0.027023473610823745, -0.38377732456807834, 0.244604955305152, -0.3836480322304894, 0.1965691121094881, 0.3070425060818097, -0.15663357825773983, -0.19692940856945246, -0.004476884207776388, 0.069031223366815, 0.10395668371781856, 0.27040533634454483, 0.05587734677815999], [0.08131360565411587, 0.1719795222501535, 0.27290830065948585, 0.07107866752686157, 0.49669784848845694, 0.06575224888808619, 0.24651722210733049, 0.20078747216679765, 0.22760727873228512, 0.13304890862218222, 0.12747528294737007, 0.06371638443837785, -0.1996397789853534, -0.07598543232897398, 0.09654565915920434, -0.32814823903389784], [-0.22468605348731122, -0.08108351437009986, -0.382106432991028, -0.2420808554304911, 0.037618920563559255, 0.5078428598573893, -0.08352662471587063, -0.4511381042574873, 0.21373881015216586, -0.23599327503368708, -0.2050826038866807, -0.22256747135086855, 0.39332603711260045, -0.3643999459571078, -0.14753512529669957, -0.03883558685145089], [0.6598141034381373, -0.2467205137438883, -0.050060815485004025, -0.03238678426584991, -0.007398188346593345, -0.16850848969893453, 0.05859513414480413, 0.1155738504530181, -0.4101413830047511, -0.027399043799181084, 0.19877703604935953, 0.6153909135423015, -0.09159772750498017, 0.08788943104206892, 0.3026409485260595, 0.4149551474274568], [0.5292347381011889, -0.11282496769957027, 0.6350906681182207, -0.2567204715437224, 0.2200508069269415, -0.3245335393471569, 0.019974843238321268, 0.2536413912321946, 0.20654051911334523, 0.17024286347857706, 0.3038786740571443, -0.19083403904313898, 0.05007013424469269, 0.12114894934268508, -0.12895291203847734, -0.054651852950347725], [-0.12500079590112012, -0.29945074361747864, 0.23025499594084226, -0.25510020430291663, -0.07416277117017146, -0.11918764384138134, 0.10768201264146762, 0.10011659871975949, -0.502199163287763, -0.1586577872772733, 0.5597156734861163, -0.20623870403732253, -0.7623435085873546, 0.12315299379639096, 0.013509550896197226, -0.22522213149840853], [-0.3528897645331244, 0.5970901754914105, 0.10920313603344288, -0.21920441280842723, 0.1310094646546166, -0.234712902103499, -0.06851513285190454, 0.009618280372194522, -0.10874640024332452, 0.1444505369411121, 0.19435278665752173, -0.56417360258323, -0.5088566606418835, -0.010805836237176193, 0.12666748444341283, 0.2295326540831845], [0.38216613128017557, 0.41453910431237906, 0.0004870069802303055, -0.4428890349188607, 0.34835539533443644, 0.2380939161901752, 0.24165344877128245, -0.2895867378088345, -0.08922711981853376, -0.13901607495440182, 0.6000584680519252, -0.887301922158382, 0.06901785936256542, 0.15924367736275707, -0.25030542527055827, -0.09312230235279227], [-0.04841326457321269, 0.34194184487648, -0.2743539901912509, -0.49460432662644066, -0.2285071266257208, 0.02494851492448871, -0.1162456691106681, 0.2539372631114809, -0.06803851771943915, -0.43502652523591295, 0.6480813072475047, -1.0025619015947136, -1.0817921835953643, -0.39018865519577695, 0.03509256507330334, 0.07980498707820605], [-0.18069538934359472, -0.24665992279414506, 0.15437508911702041, -0.08342994126803088, -0.1712639993974639, -0.2034279406897333, 0.1801878283862528, 0.5693635774754743, -0.49872862637660204, -0.7921950946574243, 0.7851015472481762, -0.48738011292416333, 0.28883954831795605, -0.03788457797064463, 0.3657716695781409, -0.1176762226510516], [-0.470837131791302, -0.3615701774255908, -0.09453195629816058, 0.36050308579565404, 0.1286450972112988, -0.23241102725548715, 0.1276644017576165, 1.1122508728813392, 0.28904081299648904, -1.2393568700665107, 0.548806137509198, -0.23562079826976565, 0.6215370445621963, -0.5684958811992403, 0.08091503267681108, 0.015552966408228461], [-0.43755237062559116, 0.061435894026541114, 0.015792685155975296, 0.8517390414897912, 0.03261032057011754, -0.45472181228414804, -0.2274909406582336, 0.9488943929639587, 0.576763707197584, -0.2805474024531545, 0.29238010655066754, -0.2946257408388136, 0.4069035424515499, 0.5232767246131168, 0.05409046356894241, 0.3816104551004889], [-0.7445781640529984, 0.5668607087880453, -0.10416909475650196, 0.46698616966859813, 0.4754197784268982, -0.6152864562483175, 0.458306827123503, 1.0201511042374105, 1.3543964018374344, -1.0243440668068589, -0.18282914673491912, 0.0059793913959786055, 0.46081794375766605, 0.6045211303120682, 0.056259679724990075, 0.2874910179708989], [-1.3936960076256775, 0.7976280706844755, 0.3504907479638752, 0.6493176793301554, -0.4515888093447174, -0.6430227795457168, -0.09718274896266328, 1.0568453275659333, 1.3127204974395226, -0.9318547023206414, -0.6532594727176056, -0.02705838712966791, 0.41549206723670085, 0.09138861908689049, -0.020647027542535158, 0.10896433154037641], [-1.0523569355803875, -0.1933359010157244, -0.20248565643465832, 0.15775256884268288, 0.6031847634662613, -0.803902263979019, 0.20601244555530876, 0.8710543435203284, 1.0867603418774026, -1.1807501425884948, 0.3692282510890565, 0.4675167234447436, 0.32296090443225073, 0.2218343679212053, 0.4311482420014821, 0.25508460881555123], [-1.0916051047828375, -1.5348153652734626, 0.6305699470694155, 0.6258384742951746, 0.09041138799184306, -0.6026154402791576, 0.29393093639771234, 1.1482201361537183, 1.2187483384673958, -0.9978095846753662, -0.029748206402859263, 0.6228258535189766, 0.0966763505203346, 0.11115557043566969, 1.2856651972277953, 0.21605412324128553], [-0.37768230171760603, -0.8354405020728723, 0.5283524794909428, 0.5370752222182955, 0.014399153430116439, -0.6887002788229526, 0.05060760303423828, 0.28414343278353993, 0.3589186913275288, -0.6739173193589844, -0.28649953774644116, -0.4797031797660382, -0.09119006828018159, 0.3658019328905614, 1.3370502392160828, -0.03396032094118227], [-0.5701131302791816, -0.7674021792844944, 0.14726793366669644, -0.11185703852666132, 0.336837754078927, -0.6171813890768513, 0.05213103278797962, -0.5693271576150459, 0.730401336042646, -0.1815108116170073, -0.10180817546317682, -0.37600672560764264, -0.4175212825738721, 0.4971026070429076, 0.5711543784838229, 0.10725524191864075], [-0.21689100579310314, -0.8971329862425682, 0.18257561549288698, -0.6802343908042956, 0.2845347382326351, -0.2579867424658715, 0.1498506549596336, -0.49151010124660643, 0.6843767206020367, 0.7006366323506596, -0.028242032354150237, 0.03836479218566255, -1.1287527236302843, 0.018410712958311037, 0.9275788305128789, 0.49009655336413077], [-0.5503304013974174, -0.2987343961378935, 0.7617953110424712, -0.6849986289086285, 0.11952971157326174, 0.1843248914695224, 0.32837371317224984, -0.14239718308059177, 1.4023531012176262, -0.23709470762571416, -0.2248668289486178, 0.09251798474963856, -0.668780958272845, -0.021737401236308643, 0.6252558931875375, -0.13357626719186827], [-0.7738323696299801, -0.377744617409196, -0.04829598285150787, -0.9360497475754297, -0.1172665297969392, 0.21253606799704955, 0.13541693421009868, -0.45827940903973824, 0.8323534275918328, 0.5909858219181536, 0.14691298858692226, 0.12049569056769974, -1.0900714946258274, 0.6077925112307736, -0.041020472969668584, 0.08861477725111672], [-0.5892500915732, -0.28714018341122527, -0.18022586441667368, -0.8413153157408533, -0.2894076499965126, 0.10535825545728146, 0.24221601252360514, -0.15612808164935887, 0.865175399856719, 0.26748953685160126, 0.6270648537855251, -0.3234094086143742, -0.7859861499391839, -0.28828038895258673, 0.13383187141852876, -0.046819862869796496], [-0.19975423293860284, -0.6652428024660715, 0.02993045905328754, -0.6463677513213947, -0.15604473029282928, 0.0659467964145074, -0.044402049460603894, 0.45127665751726537, 0.6844814077543658, -0.04245271534990993, 0.7537949483564544, -0.11407980595946332, -0.8774209661290552, 0.21068626191468312, 0.3074835895223733, -0.039530277409710206], [-0.024305584706609686, -0.8490051454398851, 0.024365536302628964, 0.20836494202519884, -0.09355024529008005, 0.11636033260417407, 0.16120692641843798, 0.5891974664704158, 0.4256124870855134, 0.039964137945296796, -0.13722740295216423, -0.5198495893974467, -0.5386993565695758, -0.07944941177484692, 0.33073245417867997, 0.11965532579117162], [-0.18820967901405378, -0.2280006635356285, 0.3734217617480582, 0.09071976565352358, -0.5252832504438499, -0.34758322250908413, -0.15227264249931813, -0.1143531196095227, 0.45324075414621945, -0.1545526185751955, 0.1739990155795467, -0.41423848109332506, -0.07863520144690911, 0.30309385106001463, 0.18195537683539947, 0.04153175213277049], [0.3279833344935486, 0.28561659157317265, -0.02047525326899364, -0.13538833721539847, -0.08739022096515862, 0.17444692406190004, -0.4632518738398783, 0.08773948884743223, -0.10490667810584957, -0.14772185310953623, -0.09640700553535779, 0.38060813769396246, -0.07565832438388623, 0.051999683905050366, 0.028081265210853783, 0.17994321922061174], [0.0022397628868699596, 0.24510842839166727, -0.04706621049644894, -0.26142995713849115, 0.1573067046830276, -0.08597262067786439, -0.16911492359746813, -0.0008570466195212471, -0.222630205252561, -0.872267187772115, 0.11390283529345292, 0.08890534613084702, -0.11930531217134957, -0.382318814497534, 0.38938028147032566, -0.4591024691927245], [0.19871845260823032, 0.27809296967741165, 0.38379096489693854, 0.34877483271377163, -0.10551675070925953, -0.11755712902943574, 0.3125061265375352, -0.016433202685957375, 0.00724021304654946, -0.11341682279105134, 0.07686642519205472, -0.06991587028106326, 0.1132066810305562, -0.1574868738010362, 0.4438214350077797, 0.22925112789722044], [-0.0061358745967693045, 0.15385507334464116, -0.1261035777200661, -0.15895818935489842, -0.10979570980627747, 0.026117895555762008, 0.2447018795918567, -0.1115285793581457, -0.1892506607462672, -0.34305899312130195, 0.17984514354522424, -0.14966184194337373, 0.12074521106991966, 0.1976646782830444, -0.39422169770013094, -0.27655911978221825], [0.04506305243084129, -0.12252654564096818, -0.1301755871818239, -0.07284544783412021, -0.5763732274643104, -0.10994949085556131, 0.29067926415264816, -0.04658479895613899, -0.2537717688412695, -0.03401663801513172, -0.06778073542099697, 0.10851111651528146, 0.1714066079885368, -0.03100386431580574, -0.7012226465698175, -0.05862147643371133], [-0.40545956216808465, 0.17593363825162012, -0.028359020341881855, 0.0764057950066167, 0.23972210098175428, 0.5293655188765369, -0.19521831483244664, 0.0844450978732954, -0.043816185544878795, -0.021259904526029518, 0.25593096555926786, 0.5414028492555177, 0.08594121314198755, 0.2745583664763482, -0.17438887970987343, -0.12752903514989425], [0.04901334496221439, 0.007262559435523869, 0.06650312429109233, -0.089362966419224, -0.4867574100856658, -0.393448317972515, 0.19169400477591433, 0.37795981133671375, 0.3469222560303545, 0.0835350085367254, -0.25609475109952173, -0.127009446051383, 0.22270582579690984, -0.03744419537100534, 0.04777811173239088, 0.1942931342469512], [0.0027411950585366886, -0.13762655244919006, -0.2293653447120402, -0.21735244989577662, 0.037343810550451634, 0.21734436591341466, 0.00910403800599757, -0.24035486397353514, -0.1851974752216076, 0.11867707490659223, -0.055284669416842715, 0.017406514991337857, -0.3431553305720494, -0.21897566334223417, -0.09765649040744037, 0.1045578584988511], [0.3012653214945109, 0.002524128918775015, 0.325968854205423, -0.4751810723723597, -0.08984301413812877, 0.4905700663454412, 0.39571519311693987, -0.49006757266136997, 0.03269165354896262, -0.11364887454823501, 0.8142876955396425, -0.47599274889120086, -0.1316909913359336, -0.09184104487073609, -0.15158500147426124, -0.011529724372860106], [0.21193439989465765, 0.11559772694491838, -0.1848511856082558, -0.21397228156780584, -0.4311716528580619, -0.046292503679412386, 0.24065337432167325, -0.4879675489831292, 0.3487309903163627, -0.18074157299095453, 0.6633740393512548, -0.2869786426623131, -0.7544637004015385, 0.25136649983708453, 0.03137402170160701, -0.0598498894887402], [0.14632061915058947, 0.39913246359421645, -0.009173425833515965, -0.455534347107552, -0.6601735789427755, 0.7586629015395505, -0.038044744239225825, 0.34142859074810866, 0.22328209462200282, -0.0069676020506825274, 0.9536762804160739, -1.3569918607993992, -0.3961919984229391, -0.32895754175592185, 0.305728957406566, 0.0006142440269206045], [-0.18906794654755948, 0.1562837614422488, -0.02434995136629331, -0.6938268072312131, -0.07880233428772515, 0.5014094907690265, 0.3627202687233886, 0.21079500702048848, 0.00936161153637275, -0.8660070816729019, 1.198740768691467, -1.0834622407909182, -0.4716788799784637, -0.04718269257255178, 0.27816383088492735, -0.10343061646520307], [0.5605223934490762, 0.12520482454709406, 0.2605960667642317, 0.05501778906627348, -0.22324035925746571, 0.04010839136525732, 0.2312634886724358, 0.7320739037746621, -0.4811084771140282, -0.9611421099597749, 0.9042310201182217, -1.0761299230651606, -0.253718372829644, -0.19145545934975242, 0.22124176901744905, 0.23739909714941484], [-0.1687005988138968, 0.4052046078828107, 0.1302434756339405, -0.1119120612084839, 0.10192037550911658, 0.30323577689317005, 0.28667152734772466, 0.6034075112585555, 0.29902595419892053, -0.47240330806312286, 0.6208545482865183, -1.6757797242969017, 0.031504082133358105, -0.25759164033836285, 0.03790647625969215, -0.1001953332924393], [-0.3086021620741065, 0.2372716817044992, 0.29131827951533074, 0.40102532915014394, -0.22111981593375526, -0.04943116136487209, -0.26551969585692475, 0.5805461609870733, 0.5360682726979344, -0.6182005981588315, 0.5311807710750275, -1.055892581178101, -0.028465581696558013, 0.27972470154846785, -0.6206187891240593, 0.16814271463955233], [-0.3384381634487582, 0.037667496439638605, -0.3692649191856377, 0.14030408181389162, 0.26876504621733355, -0.36945413211224676, 0.3865390033704463, 0.476974376901253, 0.30638529566188266, -0.5015195240217649, 0.30098036636253933, -0.9128146316423364, -0.08229159902466383, 0.03198261498724957, 0.0821637972927367, -0.014484953761246314], [-0.11213713123319752, -0.02579313782385073, -0.05959267659880933, -0.25990437487868584, -0.10309005591208897, -0.9852434312048037, 0.01400455526964006, 0.4026843122472266, 0.4234944730752845, -0.6951190253771701, 0.32594698724685045, -0.9253490377735701, 0.5721642563796467, -0.032603188806097416, 0.13313990576157825, 0.6307292928015061], [-0.5296438037491109, -0.2627542569993332, 0.44646026515204296, 0.5642033341228717, 0.3411378324331028, -0.4330767725499702, 0.21127138315369653, 0.5340033906966195, 0.9151384733501094, -0.9368879276273417, 0.10310661319405505, -0.11775249530847232, 0.4033402392278732, -0.07062191834741059, -0.1917432585349738, -0.5549620376720217], [-0.6869379216812811, -1.9441134613178113, -0.3352840855927727, 0.7205408795656559, 0.10064645316748481, -1.20184859324587, 0.5490100562812689, 0.5796033890720196, 1.3732677221395129, -0.9598813695232098, -0.16294986430153774, 0.5995206447720784, 0.4256739848034541, 0.26207453576663914, 1.6807960840694336, 0.35100468634649407], [-0.7494402475113722, -1.1175195759834333, -0.3127459707281692, 0.19671116199756644, 0.07866944068967323, -1.0411425183074425, 0.06555942026420551, 0.3655445546598526, 0.9030095081808559, -0.3736904857118948, -0.6255175947905709, -0.08435070379904358, 0.18615405368387844, 0.21874510300879493, 1.9209249156570085, 0.33281040508138254], [-0.8218192207612123, -1.329798107763126, 0.36579758946751395, -0.401293315034558, 0.39517969179822127, 0.11056966205873389, 0.2630427587328794, -0.22526817263531818, 0.22650549202375186, 0.04281224898101714, -0.19387758282213038, -0.6917144990457162, -0.9582798683066834, -0.09845864604797121, 1.4208099732212394, 0.11420376838467976], [-0.7080229624685477, -0.8823264595009349, 0.1333468844306801, -0.6364465997677469, 0.5288729965158142, -0.29078331035849153, 0.11005564965017364, -0.041003400466126765, 0.6846322612913844, -0.5784148618880527, -0.15674205503175623, -0.6935830737147093, -1.1351391835731455, 0.2877148042930817, 0.9036031093644519, 0.30109767877297855], [-0.45469692759576047, -0.8764190282308405, 0.13839198018019122, -0.8593442590642052, 0.48078960666181586, -0.08192017217150885, 0.09573701529216748, -0.18511170795372825, 0.9497162869627698, -0.020669301207107495, 0.21928145823636236, -0.5428049191249792, -0.8027242735243815, 0.34432555603398723, 0.9729965024601439, 0.10188110700294944], [-0.06292312529090047, -0.870952247195922, -0.012771196747880798, -0.012447852300464331, 0.1459886412486703, -0.3415529936655089, -0.39206046650814647, 0.3209115729569977, 0.660281938618758, -0.45614971253887565, 0.018349342536281385, -0.8472558372591164, -1.0084404636297488, 0.2719904927054298, -0.0500021671901863, 0.11203093406297296], [-0.21391955296798296, -0.9834421263308001, 0.3379832093128023, -0.0672997808227985, 0.38259330165974115, -0.39261225903483143, -0.01888902093283329, 0.7265840123380374, 0.7805199250925413, -0.7484418709129899, 1.0118200388442433, -1.071602003905171, -0.7699627986160025, 0.09225760285728789, 0.7787761444427259, 0.005364901225939419], [-0.1780641662487323, -0.9107937194479709, 0.2810306126241435, -0.298199218910219, 0.3724216437611383, -0.04972920443724941, -0.1865620569501059, 0.6258034681676977, 0.3688174622430528, -0.7578634506321782, 0.28303942072857374, -0.9409497668220479, -0.6677615332722329, 0.2621254613653572, 0.684054288061281, 0.032676699064840824], [-0.4873750999632064, -0.2683491560350028, 0.1253543063661991, -0.5810750992559525, 0.047029462219544925, -0.3654777012453125, -0.09749060588014788, 0.8104307692230079, 0.41607186823236675, -0.9854993897526755, 0.5607419107192698, -0.8615482180797069, -0.17245468605343783, -0.01466486058768369, 0.6215824050027313, -0.04547388320422528], [0.2023924939323668, -0.008458944887195901, -0.09548521361255885, -0.34999472348394245, -0.1042597430775235, 0.10994359917725165, 0.2700603294564502, 0.698712160319343, 0.04857391913407632, -0.34892767926589346, -0.31685512558495554, -1.0434382190783291, -0.32489871609606785, 0.042401083046526664, 0.5622518201600304, 0.20063049501308344], [0.37222089292100896, 0.2469461419961331, 0.2998187884429028, -0.1096038084431292, -0.018724445430430236, -0.28281818877341147, -0.22311667688435785, 0.47686383855201525, 0.01477077744846017, 0.1983796330744872, -0.34961904191564697, -0.3329254133470024, -0.26906128555660075, 0.10877614692279987, 0.7745104650269401, 0.11425754308287757], [-0.047286258221002554, -0.22542586198116507, -0.04026465107862088, -0.14360362118113584, 0.05763207081770495, 0.08888619051548045, 0.23240188763028694, 0.22776489084071413, -0.20275669155078413, -0.21622929525660992, -0.031070440784589374, 0.21751175676177636, -0.32993134015432185, -0.12682132539356852, 0.3706796277686715, 0.016722256715035615], [-0.11220000670936131, -0.20426482502351262, -0.4042726709247157, 0.12691632384953824, -0.6616073280623282, -0.04934309400048172, -0.09541756500154024, -0.32544226314415886, 0.081472409037572, 0.13689175497734404, -0.1575814341821863, -0.32890673535360687, 0.37259727280139876, -0.08051501867881351, 0.22605042116357338, 0.4734928337771416], [-0.2790393310936996, -0.340022797748676, 0.5261846469018705, -0.2831686691368813, -0.05674731016542078, -0.2557848914636802, -0.2700069547577152, -0.04889485845045925, -0.08121505507089656, 0.22690154251233016, -0.10195194048279932, -0.18812754445879523, 0.2685677609002629, 0.15246647407482705, 0.08113621567006188, 0.5258883912785871], [-0.0794682685123593, -0.2137573566028743, -0.06549786791264482, 0.17078192457680239, -0.3447246645759255, 0.5380037546954596, 0.04132321212306237, -0.5993286806924102, -0.2589005921292598, 0.08560567429389089, 0.11171223141752717, 0.12178694952399156, -0.28779657468578457, 0.16944332213246802, -0.3632235153676302, -0.13177023570722263], [-0.07420611899699438, 0.1658712465084009, -0.26220978051191984, -0.16686264766193154, 0.3572964714437819, -0.2470675965372791, 0.06209221872821507, -0.4058761290827769, 0.3060800995262042, -0.247010141893608, 0.6385173407298187, 0.02392838508012702, -0.3195099501404309, 0.3373971097362487, -0.02073087285945956, 0.2993572760065428], [0.45844432236987975, 0.4821601758139948, -0.08425080425058484, 0.1692148117194438, 0.48273705977820996, -0.19807097941188884, -0.08467377523169142, 0.22977189693581598, 0.41792833849610717, -0.2307063978160982, 0.02162850217355363, -0.01304209277091579, 0.19483399927484377, -0.0339719491049818, 0.1887679647191278, 0.007747204646439839], [-0.051427683777347626, -0.08316350011796834, 0.045912570977260224, -0.025506396292560036, 0.24381634341909778, -0.1435334040576512, -0.13742431429205507, -0.03632388163318353, -0.4588399111522437, 0.15811899529013312, 0.22739167660480705, -0.3386034756470888, 0.19241489019645855, 0.03228377708936072, 0.20649835656000728, -0.1732658821144435], [0.304155780643492, 0.1129978618491697, 0.24296460756682492, -0.5097698696847636, -0.26886276681974425, 0.19571761911126154, -0.043323212619664035, -0.18018522923558095, -0.2611777490492393, -0.10124147713950786, 0.42368278808048454, 0.014557049135284477, 0.09705088032838832, -0.4228063590724098, -0.2414472202187656, 0.13487490964344462], [-0.13730642202203383, -0.1211466943853851, -0.23272888571820177, -0.2003908471892236, 0.5470098793962097, 0.17928205518432208, 0.15661845363910534, -0.5029272480106635, -0.3289190525700814, 0.08942486775885768, 0.6794026878617171, -0.2091056140042022, -0.15253806843871814, -0.21245667681861424, 0.09152344799215087, -0.24137669488339744], [0.4957026925820746, 0.016324841596409585, -0.0867521766991845, -0.9622096225047779, 0.014123016757263, 0.8402947831901221, 0.13976265098868434, -0.1211077683857656, -0.22029321734921078, -0.09801434050506767, 1.2094702208858759, -1.760801370022842, -0.7180565210979823, 0.01033660818760996, -0.0027763571017631818, 0.12954359840247195], [0.09568093929727557, 0.28491747982183446, -0.5849190390142084, -1.0472634001001984, -0.3047346329485268, 1.2647215639217162, -0.009845470860604165, -0.18496059951377058, -0.10830890947237018, 0.35587523672347887, 0.9756103828874805, -1.0855553655373091, -0.5437647538234438, 0.09040745241030179, -0.0022878832436710765, -0.3151214660628808], [0.5078068853679572, 0.24784079256913158, 0.266941283487646, -0.7640390452562148, 0.18740239244605666, 1.139599603322512, -0.2135291950317459, 0.2476202439086719, -0.7350985239170753, -0.0925894576814161, 0.7331543218828013, -2.019647440751827, -0.7806690266363285, -0.29222214821060305, 0.15470444431199076, -0.05455408484446311], [0.671343519487018, 0.16450727985407937, -0.18239383141253676, -1.0072746358884124, -0.2403640840428025, 0.9228119179365589, 0.29024732107858964, 0.24550808570084515, -0.3232258691762341, -0.6380406206513731, 1.2665158407043806, -1.5604203554893963, -0.5410186720627039, -0.05951046813984414, 0.00952536953366289, 0.25876147558162604], [0.3163072771693109, 0.690567965567569, 0.22386955304120135, -0.724542390457261, 0.238156761798877, 1.1002031282846418, 0.06361915343484899, -0.2941940379345469, -0.11414927014472358, -0.2946936116135385, 1.611778302253851, -1.73344476328258, -0.7148127488507228, -0.16248207755984345, -0.5331136090719134, 0.17314693585477775], [0.37613064612362346, 0.6554577986153682, 0.36338003338410685, -0.8657171748316373, 0.28738647205662904, 0.5853292146904587, 0.43253121573084746, -0.07661195550704077, -0.20187233450268505, -0.4568444729542896, 1.0132014596313212, -1.6532721273471296, -0.5643747678096244, 0.4441570299385477, -0.7356979026861792, -0.31779657167359193], [0.16361825642074046, 0.7618709117906795, -0.1487237985585175, -0.8774926828489962, 0.12569910363683917, 0.007243960279505774, 0.0569841197078819, -0.23072715153741638, 0.45387588051890787, -0.5446081038616536, 1.2814199594756794, -0.8902834427777461, 0.2111816650973422, 0.022448126017583347, -0.9057282464756885, 0.22840915746252285], [-0.3524945858643681, -0.15630579391120042, 0.08282326410404214, -0.7073402988660946, 0.26954336805899887, -0.2114167539209784, 0.11294222766689167, -0.3199960645032999, 0.7759267870773643, -0.37178367056066347, 1.5315133462895343, 0.21752708921251987, 0.41086397076059755, 0.39850951680857233, -0.4581659609233063, 0.2509975506387692], [-0.6102342841928781, -1.5933680112078736, 0.24253088360131766, -0.2902340382467431, 0.0010275617997181088, -0.580503174046729, 0.16853573071135053, 0.0962735591644708, 0.6524484183157943, -0.533795750143801, -0.2781850903802083, 0.30036029751841065, -0.15097372303683276, 0.16885961392303556, 0.7630918870001172, 0.3109001570619506], [-0.6141168265514867, -1.7478652890958573, 0.6005016732861892, -0.4063040258305281, 0.2820671858311897, -0.8876236570393209, 0.5498786250245913, -0.09360791344843826, 0.2481365883802933, 0.2054602482288755, -1.6106812222902178, 0.5159563034025293, -0.1630157579481353, -0.09564891984944039, 1.6773157353378974, 0.1178249665496157], [-0.15505816311977913, -1.124290832290657, -0.10379527837667364, -0.6866146723261275, -0.01581499614291737, -1.071427660340901, 0.14645523051419151, 0.032441427002994586, -0.06052343292836194, -0.49369953086631724, -1.0183680277922453, -1.0709255656798862, -0.5700692374416081, -0.2374105835321555, 1.6338543985822254, 0.4196333246223564], [-0.362686183476905, -1.3496851162450243, 0.2486703188109274, -0.8511519394132182, 0.20751250496506893, -0.6150378357047829, 0.2011541974887323, 0.5465939714819826, 0.5254245353783027, -0.6502590711169286, 0.02297684015915372, -1.3693908070702945, -0.917629119788453, 0.3111016316562031, 1.087979206556013, 0.08173995203688164], [-0.055827171379119404, -0.8717177470224812, -0.3391046941928594, 0.05761367589369384, 0.41632805234632375, -0.265755780483722, 0.43874966323669007, 0.22157383290185062, 1.3494848049296158, -0.6149756237097024, 0.595647042619354, -0.89465940045228, -0.9279093969335516, 0.06777037203471566, 0.9199102496625458, -0.08969577243991676], [0.19932371110710875, -0.513928885151777, 0.027849402448648777, -0.3958027156988066, 0.2209768923093852, 0.08791460516651323, -0.12893284705615085, 0.3490430417196936, 0.9020632669466806, -0.6248461873019905, 0.7699744391017547, -1.472295142406618, -0.9707050237001799, 0.6269445078923968, 0.3184718114006894, -0.22546271884872499], [-0.09601574151340696, -0.8825227430895963, -0.32926206577215683, -0.3468854007929988, -0.11481776820806974, 0.36851343534727393, 0.37352084780809797, 1.5635706089492205, 1.0255331120094908, -1.2113865881454375, 0.6108902002178034, -1.4167090439822336, -0.6381931896662332, 0.3293507463811299, 1.3343550815014513, 0.030256356350060482], [-0.1558244080435252, -0.7192258155056909, 0.1521703461303299, -0.1266125762222432, 0.5931137265980193, 0.02362956146004878, 0.11945122361395788, 1.3831173775508883, 0.729084705573087, -1.1385719684179172, 0.25100916904899234, -1.2709780493210177, -0.9521892023719628, -0.3231937517891952, 0.8710088004271601, 0.09698245377387403], [0.09898713014133849, -0.2778435070764751, 0.20439944763637327, -0.2597532829927923, -0.12621696576558758, -0.5495972890520552, 0.24857810299714903, 0.570924392620298, 0.46200641202771653, -0.28265390277787794, 0.40101543053031213, -1.1608740898612202, -0.4441024223175404, 0.15710192302577738, 0.7202440086055074, -0.19046716313395126], [0.06627858097641184, -0.2596496590221107, -0.615783546115212, -0.3980979163910209, 0.23418119041019858, -0.45053934551211766, -0.04097721552195197, 0.4895965480667207, 0.11246050813826568, 0.09282220606412404, -0.13254108137855672, -0.9563300005908585, -0.021303507215124643, 0.20520771898209533, 0.5036822586968515, -0.19033239953345654], [0.03950798972757391, -0.37008489454085014, -0.024081568722243565, 0.18342526633934045, -0.05362332505515192, -0.004626984563355519, 0.29102778330484563, -0.14633258651187533, 0.09428431221193855, 0.2999698080210013, -0.12181232225825211, 0.24634348241655915, -0.2217900149956037, -0.24358813852352268, 0.7491414975074467, 0.20902503324367733], [0.011162524941170636, -0.010382374510794644, 0.13947182064838184, 0.00546446766294112, -0.41077515085768174, -0.08415285589569654, -0.3483226675361404, -0.10068918597983842, -0.032491338595771704, 0.24140943298126435, 0.15029232437738993, 0.08586842258438392, 0.1296198341298218, 0.2030931829238166, 0.11667990733954225, 0.052172058209153396], [0.028278936770345164, 0.26461598066322584, -0.05512901114494414, 0.5324389903309343, -0.6041885815157918, -0.045649303371483034, 0.20187227302736988, -0.22905195394681882, -0.15543679274759986, 0.7441519655492839, 0.13826125207006856, -0.028981993917799532, -0.583232947390704, -0.06097082530046619, 0.4900253502403524, -0.36501270428305616], [0.30094814561890687, -0.2074799860085111, 0.2713999282751829, 0.020708068621883884, 0.03980263080594763, -0.4709074732118563, -0.02966031953334003, -0.2843489443020162, 0.40373276661918495, -0.06830621397024522, -0.25220548317376007, 0.3262247748160244, 0.035362896113724, -0.21129710743829674, 0.07272340555215195, 0.09412029257783015], [0.1592260519466627, -0.07344581733034003, 0.2632219863854058, -0.22097019324163017, -0.02865604028546833, -0.1309933240124237, 0.0013761557691330001, -0.23154215950119034, -0.24704602204375875, 0.15294722070795475, 0.35265328068274143, 0.13412310365990773, 0.5176494823834629, -0.02596071957593353, 0.3278674975474318, 0.19072896409811285], [-0.13589348531582335, -0.31924229048501934, 0.20338105994465505, 0.20003993889457666, -0.15458277249036645, -0.06323548696462956, 0.22773450952986307, 0.02641975266655306, -0.013012216150826435, -0.5651543866728053, -0.37160924183896926, -0.14076870285878043, 0.21999431238661166, 0.2507804114960898, -0.13412531258078259, 0.3286422628965952], [-0.023454012167374843, 0.2853872861607375, -0.09946725289822768, -0.054074221813142524, -0.01501048218666638, 0.320355621455759, 0.4286210458249389, 0.005809321335812796, 0.03849295731962846, -0.14706405243334228, -0.22789205322309092, 0.08619267694640213, -0.10774237792312182, 0.3469939286495919, -0.011919531633163954, 0.2960991773266134], [0.26756108163355957, 0.1771801857054573, -0.13800926600002114, -0.5635990612278878, -0.24558873169303314, 0.2169667399221042, -0.19285100449635037, -0.26501277246674354, -0.28153978075984765, 0.4103505804663229, -0.03604814107204377, 0.22170090097292455, -0.13550488841318348, 0.3608704803275675, -0.17278479620513118, -0.425219425423678], [0.4684118687801384, -0.14382848294575565, -0.2800427794907961, -0.44858131455937716, -0.015006854616495188, 0.5990410064739805, -0.1732860706427707, -0.433305014878887, -0.2935411654247582, 0.014408371690579685, 0.17381914091866268, -0.11721707862211815, -0.03754121694264397, -0.13099734259904677, -0.55848498056502, 0.5890220732158357], [0.4817976414000504, -0.508349445964885, -0.3399295967435867, -0.34930876146505474, 0.34952758430982134, 0.6194129903071147, 0.37721499895890576, -0.5989213167965318, -1.008683830147926, 0.4702678444398055, 0.5496897203138316, -0.8404256777011854, -0.07395525634748229, 0.13559747509787035, 0.205558563627243, 0.3335314061238318], [-0.005504029750775721, 0.9004889765614679, -0.15406214846725855, -0.5873146408568546, -0.1850952649111931, 0.3570946381586543, -0.05944637819902356, -0.4398528305829985, -0.5583775994414277, 0.15364123217208198, 0.9092453297166089, -0.7914137970651468, -0.3772732580723355, -0.021244427529148464, -0.21222667039228243, 0.3183504810403251], [0.5572799600653418, 0.41526990816230996, 0.08615157316845481, -1.366760940074033, -0.24119993870497655, 1.0981574965713037, 0.06752276450671002, -1.0077114003051575, -1.1056144607180252, 0.288096609876627, 1.0981372257386801, -1.1166575259918206, -0.26422981311233984, -0.18275049095288032, 0.2915141022728566, -0.2922937556830094], [0.31479879224345764, 0.367546581728013, -0.2118244660207563, -1.366330037618232, -0.07803567246269254, 0.9795684590265046, 0.540670490998613, -0.537957908172141, -0.5501463298453059, 0.08590124877749677, 1.074151631214528, -1.677653588447126, 0.019856582615475578, 0.20771800263037649, 0.5481343585792424, -0.12874732520707657], [1.3206665225901562, 0.40159947863613726, -0.10627420548570278, -1.1542089522080985, -0.0409036475503936, 1.472970888874261, 0.07271852296314249, 0.08103073699582726, -0.1578417404812557, -0.0854016806083, 0.5746954174712399, -2.123054210879483, -1.0115176367818155, -0.0006162604473733985, 0.11298586131904292, 0.14737130882481245], [0.4290599454757414, 0.015249802997867101, 0.2936891333430888, -1.0728235838810083, 0.39831074278823225, 1.1815161046566842, 0.5152429895654893, -0.7079064335476938, -0.7614748988130308, -0.4812058168925167, 2.0443717976505775, -1.7337646694573579, -0.6959257572088905, 0.15087252034428264, 0.5933476272542118, 0.0489200890203779], [0.8515444040941157, 0.46591279305921895, 0.2559877729468072, -1.3768122489351726, 0.42221524825108414, 0.8319712263161204, 0.22684757378317727, -0.8682066397544791, -0.20924031044086672, 0.005496806931913455, 1.3873594259998483, -1.6478111233491353, -0.8625746121193008, 0.20041541922093611, -0.6283288431570307, -0.05379482004849941], [1.423732202461565, 0.9436095156654845, 0.03718749386573537, -1.393074715456606, 0.08094418879489455, 0.6204620158436737, 0.34329556676518147, -0.22271284225302554, -0.19199801940569503, -0.3779804998560627, 1.941348979860269, -1.991093902628116, 0.2677295896814673, 0.1887929737883469, -0.11738318436742222, -0.0295173033753157], [1.2839446792513822, 0.3498930618655205, 0.21979226433476523, -1.2372666771105585, 0.300882163118628, 0.6352280171720244, 0.6074194637055044, -0.3675907189278895, 0.19164246597535253, -0.13069845068319633, 2.105506705726481, -0.24151694678478847, -0.3294770220112606, -0.37731106774083695, -1.2505483354995695, 0.006188210705532694], [0.706148018067903, -0.8185017670480998, 0.11098021112002147, -1.0430366102489257, 0.14304113747566516, 0.7557994069959052, 0.29619915351679293, 0.24771744830909329, 0.02851934264197842, 0.20426120286115693, 0.4089096256386596, 0.7884773911255714, -0.7672628677987403, 0.4440751380877024, -1.2678168377230625, 0.4414796110921154], [0.8747905147759759, -0.9323089055300214, 0.1306066619179851, -0.3763070297816987, 